,0,1,2,3,4,5,6,7,8,9,10,11,12,13,14,15,16,17,18,19,20,21,22,23,24,25,26,27,28,29,30,31,32,33,34,35,36,37,38,39,40,41,42,43,44,45,46,47,48,49
TCGA-CH-5761-11A-01R-1580-07,-0.15532213,0.033345208,-0.21627273,0.32064295,0.057964403,-0.5434139,-0.17286028,-0.06323252,-0.31392768,0.21737242,-0.06691769,0.23751505,-0.18804894,0.18560217,-0.08143622,-0.18061134,0.06424068,-0.18528804,-0.0148439985,-0.27215454,0.1655584,0.2579457,0.18876319,0.4130147,-0.19671552,0.011055098,0.19309224,0.40675455,0.099377126,-0.028137978,0.17791551,-0.17110741,0.25502363,0.24430725,-0.17875248,-0.27853665,-0.27439559,-0.34027183,-0.1764119,-0.10667285,0.28549725,-0.23279883,0.06476394,-0.30227643,0.28550786,-0.23404643,-0.051302344,0.05083219,-0.07941514,-0.31538117
TCGA-CH-5767-11B-01R-1789-07,-0.044316314,-0.06526859,-0.21136501,0.33190218,0.04842958,-0.4770742,-0.27216232,-0.14178716,-0.45177633,0.21853478,-0.1350545,0.24606471,-0.17257828,0.23095694,0.023520296,-0.19178678,0.044197503,-0.16443588,-0.04566967,-0.22948606,0.0956925,0.18740462,0.13343221,0.30606833,-0.1317603,-0.031101367,0.17200842,0.33722585,0.11836598,-0.07022026,0.09609203,-0.1768663,0.24909365,0.16290545,-0.1331167,-0.21895353,-0.2598489,-0.3034514,-0.12900212,-0.08915281,0.23113902,-0.20939316,0.124907196,-0.27199784,0.3355138,-0.2798201,-0.022435011,0.13876882,-0.14475317,-0.29313856
TCGA-CH-5768-11A-01R-1580-07,-0.1582862,0.08713104,-0.27326086,0.36765075,0.04450883,-0.63609695,-0.17145573,-0.19775888,-0.28012127,0.1964027,-0.08083059,0.20791602,-0.15721624,0.22916783,-0.09431827,-0.11095879,0.08893449,-0.22921622,-0.043906335,-0.2433762,0.047482304,0.2226273,0.13023247,0.46819416,-0.24166387,0.035405077,0.20125361,0.44032478,0.10197127,-0.03939697,0.1862811,-0.4298157,0.34564984,0.28782475,-0.16297618,-0.27671048,-0.22669648,-0.3517203,-0.19147694,0.12213826,0.2492328,-0.28162715,0.113076955,-0.3114802,0.21486917,-0.14042917,-0.10634684,0.047031276,-0.11531452,-0.28736675
TCGA-CH-5769-11A-01R-1580-07,-0.06270642,0.0025883773,-0.17958237,0.25011942,0.040032588,-0.38007754,-0.19276533,-0.028501276,-0.25720996,0.19712332,-0.029180657,0.14672084,-0.17820053,0.16262797,-0.16752246,-0.21034528,0.01460293,-0.19177291,0.032225493,-0.19351041,0.15249394,0.2366302,0.24738948,0.2877689,-0.1662504,-0.021171385,0.23477834,0.29920757,0.1326795,-0.036181558,0.12444584,-0.12869152,0.24987245,0.26554266,-0.21116501,-0.237039,-0.2657929,-0.33134335,-0.1229127,0.0014838276,0.27054265,-0.24672878,0.15061435,-0.34206954,0.30553097,-0.20768456,-0.057397075,0.116534725,-0.10756145,-0.25925046
TCGA-EJ-7115-11A-01R-2118-07,-0.1575111,0.012232105,-0.18740092,0.34323972,0.06336275,-0.6012021,-0.17534553,-0.1914254,-0.3173673,0.15294017,-0.011640384,0.24704988,-0.17845649,0.28972483,-0.031760782,-0.2173581,0.056320693,-0.18846251,-0.095034406,-0.1649299,0.11217736,0.2158177,0.056482177,0.28683135,-0.19208218,0.019480202,0.22302651,0.4209816,0.06389198,0.0067490074,0.12492241,-0.28011405,0.271607,0.25018448,-0.1845013,-0.27503556,-0.24743824,-0.35601214,-0.22559696,0.02294993,0.19780776,-0.26584566,0.14084516,-0.3135657,0.27559412,-0.1464212,-0.11379698,0.101727664,-0.12719573,-0.31412908
TCGA-EJ-7123-11A-01R-1965-07,-0.14881144,-0.13271917,0.141877,0.36106217,0.019231595,-0.476432,-0.30931187,-0.21637848,-0.29486284,-0.053071696,0.14055744,0.31548753,-0.20450495,0.39001665,0.19480707,-0.40657002,-0.07882336,-0.17475595,-0.05153843,-0.05972252,0.13254225,0.23249188,-0.3870517,0.07221854,-0.22082432,-0.023941744,0.21502969,0.34908593,0.11929845,-0.09655412,0.1276746,-0.47776195,0.27599603,0.27332154,-0.15610653,-0.23304762,-0.17021112,-0.18278663,-0.18004405,0.06711588,0.17155828,-0.25494927,0.21473677,-0.24861912,0.19704352,-0.19231732,-0.20459516,0.075749405,-0.3082988,0.0325066
TCGA-EJ-7125-11A-01R-1965-07,-0.19540799,0.001494801,-0.29655004,0.38150537,0.0024080407,-0.63751405,-0.18584985,-0.21413359,-0.17892462,0.061971493,0.03903607,-0.08945842,-0.2119468,0.41616535,-0.06600572,-0.15321864,-0.0028720596,-0.2832235,-0.2665654,-0.09410268,0.1855893,0.24248877,0.12851083,0.1015623,-0.15685688,0.12359823,0.20390852,0.42567876,0.057425793,0.17755207,0.061725438,-0.17067719,0.28937218,0.22173771,-0.21732666,-0.20900396,-0.29418606,-0.3904288,-0.16598128,-0.01834807,0.164288,-0.26128367,0.21488214,-0.39706254,0.24907228,-0.075872295,-0.070685074,0.16646244,-0.17466591,-0.26439056
TCGA-EJ-7314-11A-01R-2118-07,-0.14099282,-0.036841907,-0.059448168,0.3982051,0.08887748,-0.58901584,-0.28126937,-0.23769021,-0.43477896,0.05086818,-0.0049656965,0.28873023,-0.24888723,0.30008128,0.0642,-0.3174764,0.023297932,-0.14097193,0.0131146265,-0.14763348,0.04061837,0.23201723,-0.119738765,0.20665884,-0.15008928,-0.022743579,0.2655183,0.3437069,0.042366352,-0.06799197,0.1533341,-0.31103638,0.27962315,0.26629552,-0.17072964,-0.22634442,-0.19889583,-0.2671683,-0.135788,-0.06408856,0.2180989,-0.21668316,0.18055241,-0.30982897,0.2801184,-0.21924445,-0.15151995,0.061554722,-0.17425282,-0.1695946
TCGA-EJ-7315-11A-01R-2118-07,-0.031160492,-0.17090039,-0.056401994,0.30655065,0.09038072,-0.37416843,-0.26289722,-0.24877803,-0.4754052,0.07824603,0.018531132,0.30395475,-0.19414844,0.2816418,0.26169044,-0.3521192,-0.028769288,-0.1633953,0.059550904,-0.12874943,0.11903371,0.20758614,-0.18591967,0.07381486,-0.08518688,-0.028845057,0.21164292,0.2382261,0.11865498,-0.11617327,0.08381141,-0.1292652,0.23576777,0.19094895,-0.14597632,-0.1572136,-0.21564889,-0.26281384,-0.17465611,-0.14249635,0.13853696,-0.12925278,0.11545959,-0.24654737,0.33006766,-0.23283677,-0.07563076,0.045654844,-0.19139588,-0.30403292
TCGA-EJ-7317-11A-01R-2118-07,-0.200862,0.09148446,-0.19945732,0.43851206,0.022513278,-0.64321935,-0.22090568,-0.23882605,-0.30271095,0.11970342,-0.009791799,0.24934751,-0.2152093,0.26493478,-0.04491286,-0.19588064,0.076000154,-0.24789569,-0.043330647,-0.1960108,0.09061168,0.20164745,-0.0064513437,0.34196982,-0.19222562,0.062407017,0.24922755,0.38196325,0.049572825,-0.0248703,0.2094784,-0.38735008,0.3255897,0.28766283,-0.20193575,-0.28610542,-0.21174137,-0.3245495,-0.16038577,0.010839778,0.22732632,-0.33113518,0.15545306,-0.32168218,0.24603988,-0.11121415,-0.10424577,0.065004624,-0.1628966,-0.21702486
TCGA-EJ-7321-11A-01R-2263-07,-0.18268672,0.015387685,-0.15566964,0.34459916,0.072064824,-0.5632729,-0.23230611,-0.22806099,-0.387419,0.21248756,-0.016309671,0.3515774,-0.12706369,0.23335871,0.018591309,-0.24634221,0.057522308,-0.14542025,-0.10259984,-0.24148116,0.14816484,0.23111026,0.014797981,0.33391106,-0.1635987,-0.0012960259,0.20117997,0.34946358,0.029346958,-0.041813247,0.12129207,-0.18552826,0.2291561,0.2279568,-0.16440016,-0.1764777,-0.2860974,-0.34166476,-0.21545878,-0.18614133,0.2032182,-0.21138348,0.1306449,-0.29933953,0.38706285,-0.23521279,-0.075386725,0.10408185,-0.15882526,-0.29360563
TCGA-EJ-7327-11A-01R-2118-07,-0.17571332,0.115019344,-0.26318964,0.35986626,0.008874549,-0.5979656,-0.21490623,-0.20308612,-0.18454157,0.16651279,-0.09859416,0.15395033,-0.19003725,0.21916649,-0.041973744,-0.19725205,0.07137138,-0.26172566,-0.06321489,-0.24498037,0.098439775,0.27157202,0.16524428,0.39638925,-0.20536117,0.076427355,0.28852177,0.4054808,0.065699846,-0.018442843,0.19893412,-0.40501773,0.37428024,0.27456024,-0.2636949,-0.27310368,-0.20008866,-0.37111604,-0.14474903,0.06236909,0.27452105,-0.3438183,0.16333674,-0.30720913,0.19357908,-0.036892675,-0.056384277,0.073614344,-0.052617446,-0.22426246
TCGA-EJ-7328-11A-01R-2118-07,-0.15855134,-0.1211786,0.036461737,0.35554412,0.04616036,-0.5735224,-0.30331537,-0.21460448,-0.44933084,0.026853459,0.099105775,0.3135861,-0.26166293,0.3377355,0.12647198,-0.35479254,-0.07772165,-0.15770935,-0.14286979,-0.13100399,0.10665182,0.2387173,-0.24660563,0.14160551,-0.15414806,-0.04111772,0.24540806,0.3252332,0.056650396,-0.012384768,0.06626369,-0.30393162,0.27495727,0.25173727,-0.1225574,-0.16570508,-0.2179447,-0.22816926,-0.16882257,-0.090818815,0.17294697,-0.22627299,0.16080734,-0.27844942,0.3188909,-0.21931879,-0.15492201,0.1104847,-0.22574441,-0.1014171
TCGA-EJ-7330-11A-01R-2118-07,-0.14864974,-0.13270019,-0.054046262,0.33835375,0.034959693,-0.47638026,-0.2885339,-0.19018935,-0.45534137,0.03101913,0.0576828,0.22466202,-0.19324721,0.36214116,0.124475054,-0.30610508,-0.07652406,-0.13009311,-0.09940969,-0.09265354,0.14669451,0.20691043,-0.15336455,0.103731655,-0.10162415,-0.026334075,0.18108515,0.32338881,0.058976665,-0.0058226013,0.070410356,-0.1637011,0.28062263,0.22724377,-0.1642261,-0.19401486,-0.24477762,-0.25247395,-0.19792986,-0.119375214,0.11319551,-0.19895671,0.17660116,-0.26752758,0.38014615,-0.2381017,-0.14842182,0.12447107,-0.20028605,-0.17541121
TCGA-EJ-7331-11A-01R-2118-07,-0.16194735,-0.045079496,-0.04494183,0.3783055,0.06380476,-0.5318573,-0.24012893,-0.24651854,-0.37928057,0.031636845,0.0024272548,0.3037972,-0.19888951,0.2910725,0.13574222,-0.37044543,-0.033528667,-0.21789059,-0.050316174,-0.14168027,0.08943925,0.22003978,-0.14319234,0.18728364,-0.13615704,-0.024115495,0.23367842,0.31153232,0.07806176,0.0063624536,0.09291419,-0.2866561,0.274919,0.2544467,-0.1375182,-0.21090129,-0.16330324,-0.27476203,-0.22389916,-0.08106203,0.18841971,-0.21092537,0.14739004,-0.27479482,0.3029627,-0.16910619,-0.15665367,0.10185794,-0.17540799,-0.1818516
TCGA-EJ-7781-11A-01R-2118-07,-0.10432407,-0.16028677,-0.011663506,0.34077695,0.06827534,-0.51242304,-0.27952754,-0.3014885,-0.43936437,0.07234385,0.07841156,0.3379812,-0.20388113,0.33236197,0.2542536,-0.37165073,-0.02986004,-0.13729843,-0.06355348,-0.08541012,0.09551805,0.2500721,-0.3008384,0.038445182,-0.12099304,-0.01022383,0.24012141,0.28484997,0.10968393,-0.098995626,0.11143928,-0.28839478,0.26182088,0.2075213,-0.13928477,-0.18034641,-0.19755095,-0.22585711,-0.20550725,-0.043154668,0.18196017,-0.15104517,0.14970195,-0.23930553,0.31945968,-0.20944047,-0.1201353,0.04551099,-0.20716663,-0.16587126
TCGA-EJ-7782-11A-01R-2118-07,-0.09870611,-0.034784567,-0.2439162,0.32915083,-0.010812027,-0.52388287,-0.2197329,-0.23426262,-0.32260698,0.20645164,-0.0415706,0.05370242,-0.14645705,0.2950743,0.013488067,-0.2179112,-0.02481745,-0.20292245,-0.0750109,-0.12540969,0.13745916,0.17093098,0.07541072,0.13930637,-0.102584705,0.08856377,0.1732396,0.30367386,0.073472366,0.0031713056,0.0947367,-0.051060177,0.2537738,0.17786105,-0.2397883,-0.19645524,-0.25938734,-0.31395397,-0.07928699,-0.17527476,0.103959575,-0.2210686,0.1530222,-0.36005464,0.30622935,-0.1764824,-0.09846276,0.10880383,-0.11115097,-0.3171742
TCGA-EJ-7783-11A-01R-2118-07,-0.10159827,-0.22457288,0.17980354,0.38731253,-0.1079894,-0.46745652,-0.2874727,-0.12995398,-0.21125865,-0.058692105,0.2521259,0.14567675,-0.1906513,0.4340679,0.15078914,-0.32216585,-0.16451359,-0.15114613,-0.211058,-0.040380646,0.17389017,0.24117939,-0.29991916,-0.054270614,-0.20205764,-0.044464383,0.25063226,0.37134328,0.10003615,0.08331165,0.03964171,-0.32726768,0.30149835,0.24039303,-0.14394492,-0.23187964,-0.21234275,-0.12985227,-0.18449229,0.05278933,0.1676064,-0.23769847,0.2400161,-0.23169094,0.23339951,-0.22170414,-0.19025709,0.15627606,-0.32531935,0.033371467
TCGA-EJ-7784-11A-01R-2118-07,-0.096999235,-0.010274528,-0.16132839,0.3777256,0.059979435,-0.53743064,-0.25985536,-0.22419989,-0.43883693,0.18634501,-0.10797043,0.2478242,-0.22180365,0.28195938,0.06335343,-0.26698208,0.028325958,-0.13251643,-0.0064626173,-0.21594658,0.043423392,0.22837456,0.0034523872,0.2577542,-0.16834335,0.024077877,0.22302239,0.28455523,0.07777953,-0.06249144,0.14607842,-0.22224014,0.27345794,0.19204064,-0.16273735,-0.2375155,-0.23136723,-0.29577237,-0.15365173,-0.07256328,0.17741296,-0.16310059,0.08810414,-0.29601112,0.2914099,-0.20939776,-0.06864787,0.06718239,-0.15743731,-0.32388145
TCGA-EJ-7785-11A-01R-2118-07,-0.18189076,-0.025891233,-0.15356775,0.38593528,0.033863932,-0.5730415,-0.2746153,-0.23091322,-0.3472258,0.08872653,0.04758713,0.20508489,-0.16503632,0.34842822,0.11610998,-0.26644716,-0.026960993,-0.20247872,-0.1596987,-0.13436548,0.15442857,0.22140816,-0.06383603,0.16709699,-0.14839181,0.031428065,0.18678625,0.3485174,0.04915695,0.035946228,0.07329311,-0.26708066,0.2926023,0.25911272,-0.13102227,-0.20846204,-0.23286954,-0.2935534,-0.19490443,-0.038159043,0.15373103,-0.2246858,0.15469934,-0.33005184,0.30403224,-0.15638833,-0.121874824,0.080077335,-0.20248426,-0.2594123
TCGA-EJ-7786-11A-01R-2118-07,-0.09944839,-0.1088728,-0.03657799,0.34267986,0.14760025,-0.46803948,-0.3000724,-0.24914221,-0.45285776,0.07306925,0.008842299,0.39065132,-0.18964848,0.24892649,0.22893968,-0.332082,0.008571662,-0.19097394,-0.052384216,-0.11334854,0.050071876,0.2573985,-0.24037986,0.1263145,-0.12331899,-0.054813597,0.20150991,0.33626938,0.08974321,-0.08205371,0.1245064,-0.24876393,0.26119965,0.2226535,-0.15077086,-0.23587148,-0.17599027,-0.24257252,-0.17086186,-0.105257146,0.20977741,-0.18898219,0.120532736,-0.27012172,0.319216,-0.22716211,-0.106877804,0.07754877,-0.19919927,-0.19692586
TCGA-EJ-7789-11A-01R-2118-07,-0.15688474,0.00033526818,-0.20547423,0.34476268,0.019009147,-0.56854314,-0.21138312,-0.22880961,-0.35848805,0.15876229,-0.052986827,0.21716987,-0.15834248,0.27400282,-0.0075520715,-0.20736346,-0.010450406,-0.23462133,-0.10279904,-0.19346267,0.14623472,0.2068464,0.079123914,0.20480472,-0.10682847,0.052354462,0.14578322,0.33106595,0.08882946,-0.024858847,0.13548264,-0.19288984,0.27834988,0.212584,-0.18041906,-0.2399006,-0.21644787,-0.3315032,-0.15445438,-0.10092605,0.20492463,-0.23914467,0.116088144,-0.3298977,0.27018145,-0.17391214,-0.098913886,0.07586372,-0.14769308,-0.3033989
TCGA-EJ-7792-11A-01R-2118-07,-0.15539238,-0.053264532,-0.13092658,0.320775,0.057114005,-0.49654582,-0.25547436,-0.27007252,-0.42766312,0.105303735,-0.03520076,0.3045824,-0.15297967,0.30393437,0.1106362,-0.23186158,0.021723704,-0.17396495,-0.10484732,-0.14370565,0.14116807,0.25061238,-0.06446954,0.1560852,-0.15785465,0.028785508,0.19725157,0.33384764,0.06292593,-0.033508606,0.11977942,-0.18461859,0.23319288,0.23201998,-0.16490312,-0.17428647,-0.23558475,-0.32297936,-0.178238,-0.1335163,0.1856955,-0.22767723,0.09714574,-0.28692687,0.3236524,-0.20586517,-0.107175454,0.07902644,-0.16274574,-0.27045232
TCGA-EJ-7793-11A-01R-2263-07,-0.16040675,0.008252445,-0.14182329,0.38851926,0.0766601,-0.56686914,-0.26872075,-0.23244533,-0.32856238,0.094989024,0.001111773,0.2740676,-0.19899389,0.2641291,0.08014104,-0.29315048,3.639215e-05,-0.20876788,-0.14915286,-0.1688934,0.12865406,0.22600259,-0.08437019,0.21706107,-0.14341654,0.0133337835,0.24337499,0.37125054,0.033113122,-0.0045231804,0.097029395,-0.26167536,0.2630287,0.20538583,-0.19194064,-0.25871286,-0.24761781,-0.29918194,-0.1481548,-0.10074771,0.20578037,-0.27905446,0.14918998,-0.33032778,0.3014876,-0.17034414,-0.09821678,0.042660885,-0.16803344,-0.20857249
TCGA-EJ-7794-11A-01R-2118-07,-0.044995848,-0.13665117,-0.119364165,0.2826369,0.09907763,-0.42022276,-0.26873645,-0.19101647,-0.5127878,0.16145723,-0.084259644,0.33078897,-0.17356007,0.21530399,0.11167945,-0.267248,0.012499189,-0.14620338,0.00992128,-0.16560578,0.08035966,0.17852536,-0.13213095,0.15336859,-0.10352496,-0.057145767,0.1801966,0.24238458,0.11923886,-0.16106634,0.11453121,-0.14822665,0.2733215,0.1791652,-0.11144804,-0.19582997,-0.2603697,-0.24495082,-0.18885048,-0.11665876,0.1887591,-0.14154477,0.06436786,-0.31937826,0.34289548,-0.2565133,-0.12802155,0.03829576,-0.17328836,-0.29647958
TCGA-EJ-7797-11A-01R-2263-07,-0.16054454,-0.026833069,-0.18550818,0.38684157,0.0087758135,-0.5632026,-0.23643695,-0.22626488,-0.2686763,0.10363476,0.0723372,0.2013439,-0.18412535,0.37102622,0.03431067,-0.22695042,-0.052730177,-0.19733043,-0.25532869,-0.1003285,0.15989842,0.24841955,-0.037610687,0.17115194,-0.14659023,0.028133215,0.22188205,0.43192273,0.042832475,0.097115025,0.055027917,-0.24701735,0.24004243,0.19694705,-0.14697917,-0.1981545,-0.31214076,-0.3653952,-0.19105376,-0.089495964,0.1755635,-0.21013002,0.16560394,-0.3369744,0.31136265,-0.15274338,-0.099996135,0.12500393,-0.16839854,-0.26219139
TCGA-EJ-A8FO-11A-11R-A36G-07,-0.119493924,-0.090498656,0.06920373,0.28877512,-0.049670815,-0.53943986,-0.31462172,-0.102623105,-0.34645715,0.12456451,0.13555934,0.3080625,-0.12452356,0.33864745,-0.067001104,-0.26849508,-0.079152904,-0.095279574,-0.20576864,-0.16540566,0.14559202,0.25862956,-0.10259521,0.21079767,-0.18857981,-0.047682874,0.17991671,0.37594372,0.00046399146,0.058752626,0.03760391,-0.30136368,0.23175858,0.24167779,-0.11683739,-0.19047168,-0.3346867,-0.18267208,-0.22661845,-0.0005925601,0.1930285,-0.24714257,0.16605763,-0.23971137,0.3455025,-0.29433265,-0.16562739,0.1897923,-0.27076674,-0.21153189
TCGA-G9-6333-11A-01R-1965-07,-0.106035404,-0.060034513,-0.14563341,0.33658767,-0.051679075,-0.5829002,-0.21037039,-0.02444361,-0.35152635,0.1140814,0.04084932,0.16738482,-0.1451043,0.30497184,-0.14889236,-0.09596009,-0.037724234,-0.12936434,-0.20168687,-0.1774419,0.17237082,0.21295008,0.10463038,0.31222942,-0.14682902,-0.07175797,0.21431579,0.47425193,0.042773593,0.12934396,0.043074504,-0.22136384,0.32864016,0.2712906,-0.15095778,-0.20589091,-0.31649765,-0.31119862,-0.26282847,-0.1169502,0.20664798,-0.23373026,0.15229024,-0.29514855,0.26549435,-0.22650172,-0.12237261,0.1664397,-0.21681608,-0.262051
TCGA-G9-6342-11A-02R-1965-07,-0.19812691,0.023239879,-0.18985564,0.3996027,-0.026780346,-0.63912225,-0.16785032,-0.037644845,-0.2819229,0.09505386,0.004205608,0.060999576,-0.16361706,0.30899194,-0.22636713,-0.13893878,0.014530571,-0.25954157,-0.10261183,-0.21812294,0.14888668,0.24291703,0.20324616,0.34410232,-0.13938943,0.0419332,0.20591903,0.4234401,0.09212607,0.13451123,0.09871877,-0.24296401,0.27810517,0.28004903,-0.20174396,-0.266651,-0.2914698,-0.37241784,-0.16553093,-0.05932191,0.22348945,-0.34166396,0.13254452,-0.35734937,0.23754235,-0.160162,-0.03479814,0.1967084,-0.14373362,-0.2186252
TCGA-G9-6348-11A-01R-1789-07,-0.23414889,-0.028626597,-0.03484112,0.35698855,-0.026747355,-0.5791906,-0.22273692,-0.06880818,-0.24659833,0.019470891,0.17592472,0.280322,-0.12224451,0.39674288,-0.016854413,-0.24506192,-0.034303747,-0.15753503,-0.32803023,-0.16962193,0.22350243,0.23094727,-0.019094888,0.26174328,-0.19625184,-0.01724348,0.21684688,0.5080893,0.015064202,0.23248978,0.035149302,-0.2761082,0.28200838,0.27757484,-0.13042048,-0.19697367,-0.34180897,-0.25689578,-0.25417393,-0.119436495,0.18600956,-0.30388284,0.16938393,-0.32711115,0.30819497,-0.29704335,-0.14782,0.18744545,-0.30245745,-0.17409441
TCGA-G9-6351-11A-01R-1965-07,-0.24864674,0.076189466,-0.13360685,0.37423125,0.028355766,-0.6175761,-0.19447093,-0.11735301,-0.22080886,0.072003275,0.121146515,0.2682256,-0.14598493,0.3249016,-0.12420948,-0.18422236,0.033464342,-0.14809778,-0.20437078,-0.1650358,0.18883483,0.25354698,0.10073155,0.34351596,-0.17288189,-0.010561558,0.26768172,0.5324323,0.009017716,0.13302405,0.096165955,-0.33689305,0.33833236,0.32053202,-0.19940338,-0.2704515,-0.2893509,-0.34256825,-0.23995516,0.01884638,0.24577832,-0.27788246,0.19322972,-0.34147495,0.30825236,-0.16387102,-0.1491924,0.12715289,-0.21353215,-0.21651635
TCGA-G9-6356-11A-01R-1789-07,-0.076646075,0.04916646,-0.26528597,0.34199563,-0.009164879,-0.50983816,-0.15614423,0.03534913,-0.23193403,0.27789235,-0.16386989,0.078326695,-0.16560979,0.24250764,-0.18789561,-0.030802436,-0.0012343238,-0.22741984,-0.09214115,-0.25521684,0.14509888,0.25544715,0.38404837,0.45752132,-0.17835566,0.029771991,0.18774164,0.31523886,0.14262582,0.031617116,0.117872946,-0.051820956,0.28837124,0.1675601,-0.19878148,-0.26601788,-0.3204498,-0.3702964,-0.09034319,-0.15906245,0.24613869,-0.23701958,0.14951986,-0.28267735,0.28440946,-0.24410403,-0.00015412255,0.12939152,-0.10142501,-0.3313422
TCGA-G9-6362-11A-01R-1789-07,-0.11560261,0.029506672,-0.21644457,0.3291509,-0.07207639,-0.4994096,-0.124425665,-0.14113249,-0.022343924,0.122463815,0.1361523,0.15308301,-0.1287116,0.26786375,-0.080399126,-0.14196278,0.030568883,-0.2633242,-0.10071801,-0.20999138,0.19630593,0.28524527,0.14822629,0.2122701,-0.19679883,0.009936402,0.22506382,0.43680474,0.086738646,0.12580705,0.1353849,-0.30785853,0.30167827,0.3007516,-0.23553392,-0.28403535,-0.23706886,-0.25546366,-0.12892449,0.10290488,0.26616856,-0.29224703,0.18376032,-0.2862989,0.24836126,-0.08741271,-0.14824402,0.11748372,-0.13248533,-0.13475487
TCGA-G9-6363-11A-01R-1789-07,-0.120694526,-0.04222834,-0.18711388,0.33114812,-0.023901546,-0.59231055,-0.2151644,-0.08615567,-0.30113104,0.1102706,0.009818675,0.16622075,-0.19300605,0.21868463,-0.10928592,-0.20374511,-0.029082436,-0.2030947,-0.03280769,-0.18361706,0.23108368,0.20922501,0.14501707,0.2637529,-0.19173783,0.015481615,0.22808954,0.35750252,0.094373345,0.057927523,0.10945131,-0.2192674,0.3030964,0.2772734,-0.17194673,-0.22736332,-0.26770842,-0.31196812,-0.19768359,-0.034464356,0.23616779,-0.20351861,0.14347956,-0.30310735,0.27128577,-0.1566164,-0.13085365,0.10952727,-0.12312024,-0.29659024
TCGA-G9-6365-11A-01R-1789-07,-0.15023926,0.024870709,-0.24525623,0.340369,-0.042742994,-0.59392804,-0.23660465,-0.027373273,-0.26792645,0.22156441,-0.037094746,0.22071545,-0.11565376,0.28914353,-0.15479279,-0.06725649,0.038466286,-0.17465606,-0.23780353,-0.26301038,0.14796329,0.25954878,0.26883146,0.4401318,-0.14268132,0.0014400864,0.19929732,0.4513828,0.029281242,0.110450864,0.05469117,-0.19339944,0.2910683,0.21590985,-0.15197724,-0.19482993,-0.36940083,-0.36545148,-0.18399046,-0.12045793,0.24862674,-0.24247967,0.10216157,-0.31616178,0.34261405,-0.22243625,-0.043365642,0.14833544,-0.16708104,-0.3487137
TCGA-G9-6384-11A-01R-1858-07,-0.2306708,0.038384195,-0.09343641,0.3939399,0.030251388,-0.64744437,-0.2486983,-0.14973044,-0.24408855,0.08409309,0.024870135,0.29411858,-0.17103238,0.3380025,-0.03453656,-0.24388887,0.0033050282,-0.17591622,-0.20562623,-0.151604,0.11940254,0.26694778,0.030919923,0.31944576,-0.19180058,-0.01998189,0.24539551,0.421757,0.005456516,0.12369559,0.09790058,-0.30882928,0.2839663,0.3295328,-0.15837033,-0.25972557,-0.2704709,-0.29222968,-0.20938814,-0.031159341,0.2764915,-0.32682383,0.19003053,-0.3504523,0.27082902,-0.16989356,-0.15032184,0.1573936,-0.19928573,-0.09248284
TCGA-G9-6496-11A-01R-1789-07,-0.1743071,-0.01749614,-0.08753457,0.34434372,-0.022273095,-0.6317504,-0.24780254,-0.05332852,-0.3664201,0.091153555,0.15551242,0.2522956,-0.13596377,0.36016455,-0.11863111,-0.17793947,-0.023269108,-0.15973012,-0.28373188,-0.18700536,0.19636022,0.20467797,0.043483526,0.27401492,-0.15603575,-0.028095907,0.21699446,0.51907146,-0.013316817,0.17517588,0.0067657377,-0.16321959,0.27473798,0.24691021,-0.15215586,-0.23319903,-0.3300103,-0.29710165,-0.23471874,-0.10747871,0.1923658,-0.24943428,0.15880369,-0.29153585,0.3928427,-0.23724951,-0.16544446,0.161342,-0.21152247,-0.24907137
TCGA-G9-6499-11A-02R-1965-07,-0.07254558,-0.07727066,-0.14820981,0.33310443,-0.0446838,-0.55476296,-0.19502524,-0.021519702,-0.24163124,0.056185894,0.047890063,0.10201557,-0.20125905,0.31467485,-0.08978529,-0.17850114,-0.039142217,-0.21123819,-0.10988065,-0.20101088,0.19367842,0.2158729,0.083893225,0.1854146,-0.17135318,0.0014988597,0.24800487,0.40124092,0.11986643,0.053610884,0.07316672,-0.25041565,0.3299511,0.26380968,-0.19475833,-0.2832098,-0.2726725,-0.33458897,-0.13659847,0.016208282,0.23401695,-0.22562249,0.16332257,-0.3146588,0.27004686,-0.20521587,-0.10945239,0.10416656,-0.079614736,-0.20001084
TCGA-HC-7211-11A-01R-2118-07,0.059085365,0.0645038,-0.15519316,0.20626587,-0.16073963,-0.29971102,-0.14254008,-0.05570434,-0.04166384,0.16076158,-0.1111505,0.17505418,-0.09467004,0.13839774,-0.20855178,-0.050410535,0.0056477846,-0.2020012,-0.17364627,-0.249414,0.18643141,0.23885685,0.0037993002,0.31703463,-0.20110556,-0.043966576,0.22149612,0.3938339,0.10627482,0.04836049,0.16894528,-0.25295314,0.2716109,0.2746541,-0.1294901,-0.26903504,-0.32212502,-0.3160533,-0.15150584,-0.0049144877,0.28428075,-0.19501147,0.1912502,-0.2361562,0.13166843,0.08226732,-0.11772339,0.20262307,-0.1594855,-0.11962646
TCGA-HC-7737-11A-02R-2118-07,0.04804138,-0.023229912,-0.14992456,0.27936,-0.08967153,-0.2827396,-0.21781422,-0.12238738,-0.23353207,0.14335959,-0.1335497,0.17040771,-0.15239337,0.18939878,-0.10855635,-0.0640677,-0.016217565,-0.1509172,-0.06947133,-0.18852492,0.15313827,0.23282881,-0.10986115,0.2398789,-0.20102605,-0.085082226,0.2285078,0.2720321,0.08809324,-0.040489417,0.13070929,-0.27184698,0.20552151,0.23377328,-0.1683383,-0.24951687,-0.2884188,-0.27705622,-0.25126517,0.02949469,0.21556818,-0.2279623,0.18396921,-0.21821283,0.07974685,0.09309904,-0.17213425,0.17466985,-0.16598502,-0.18079749
TCGA-HC-7738-11A-01R-2118-07,0.050744228,0.0025690866,-0.07427664,0.292811,-0.12528157,-0.30802077,-0.23902254,-0.18420833,-0.20132281,0.11441696,-0.0522175,0.27574366,-0.18080339,0.22646864,-0.024464896,-0.12245353,-0.010377595,-0.17311628,-0.17331284,-0.18798256,0.13365963,0.26181358,-0.12834194,0.2053593,-0.20613047,-0.06791756,0.19298382,0.36161438,0.058448892,0.009367978,0.13890673,-0.38612068,0.24006858,0.3017815,-0.12177109,-0.2346764,-0.3058699,-0.24939929,-0.2016677,0.079155564,0.23457924,-0.23754375,0.184316,-0.1781788,0.122764856,0.035009827,-0.14184983,0.14156964,-0.16212864,-0.10873569
TCGA-HC-7740-11A-01R-2118-07,0.10960752,-0.0016539275,-0.17789735,0.2465029,-0.12386691,-0.2606732,-0.21495947,-0.1561977,-0.12737897,0.20453465,-0.13768765,0.23717014,-0.10646064,0.14227052,-0.019554034,-0.03991184,-0.011788536,-0.15100157,-0.18538825,-0.24236399,0.15797473,0.18879262,-0.088290416,0.25127044,-0.16586435,-0.08873418,0.22933762,0.33906695,0.07939107,-0.025516639,0.15712585,-0.27999488,0.29566893,0.21010065,-0.099398576,-0.23935087,-0.28015265,-0.23265319,-0.24471828,-0.0149110975,0.22669034,-0.17628498,0.14060104,-0.18467812,0.09669332,0.10807943,-0.14694105,0.16317049,-0.11258318,-0.22630033
TCGA-HC-7742-11A-01R-2118-07,-0.15661755,0.031711858,-0.15094092,0.35598716,0.0445303,-0.6504929,-0.19149627,-0.19201232,-0.2911072,0.10369086,-0.025417058,0.23243074,-0.17928317,0.2267039,-0.06525849,-0.24346875,0.058758613,-0.18506594,-0.024235705,-0.18991658,0.110748366,0.23433249,0.04988793,0.37605122,-0.2384355,0.004208243,0.23144051,0.43342343,0.05885943,0.0045900615,0.1321377,-0.25194943,0.28396744,0.28468928,-0.19189149,-0.2635688,-0.23547481,-0.29263487,-0.20826912,0.004509766,0.2594735,-0.24602802,0.18918264,-0.35392082,0.29565006,-0.16237605,-0.10800966,0.08868645,-0.12266379,-0.24338269
TCGA-HC-7745-11A-01R-2118-07,-0.028109476,-0.06630609,-0.030485336,0.2860517,-0.07312793,-0.35388294,-0.22711067,-0.12968102,-0.22736904,0.09753152,-0.035243243,0.32171518,-0.13310991,0.2314574,-0.02089256,-0.15675664,-0.02543374,-0.11351448,-0.20164798,-0.20528473,0.1504511,0.23334625,-0.21691625,0.1961107,-0.124115355,-0.1440223,0.22423077,0.34496874,0.047100086,-0.030516943,0.12631853,-0.33110592,0.25795025,0.25337717,-0.10918839,-0.25674957,-0.31517202,-0.2159412,-0.2850302,0.040093243,0.25578475,-0.23561372,0.21213941,-0.24235655,0.14298846,-0.03926075,-0.1839121,0.12619552,-0.22940157,-0.076960385
TCGA-HC-7747-11A-01R-2118-07,0.03710721,0.015471219,-0.1639099,0.20931685,-0.16265035,-0.3217286,-0.18282217,-0.11402016,-0.13352329,0.12125494,-0.109724894,0.177384,-0.15906206,0.17133851,-0.0858081,-0.11970548,0.004076795,-0.1811884,-0.14730388,-0.24236792,0.17046636,0.1722547,-0.07456752,0.25313473,-0.16910565,-0.102086216,0.27899417,0.37043074,0.048749108,-0.0021955739,0.16544881,-0.33425152,0.287267,0.32488558,-0.15059055,-0.27518824,-0.27719125,-0.28153303,-0.25382808,0.039719574,0.24568544,-0.21290833,0.19825394,-0.23334962,0.07588317,0.07425093,-0.13924439,0.19799422,-0.13943505,-0.12887764
TCGA-HC-7752-11A-01R-2118-07,-0.18660614,-0.07566237,-0.06735806,0.36377087,0.011525947,-0.485779,-0.2106948,-0.02903381,-0.31736284,0.04770918,0.1359029,0.27732828,-0.14703055,0.30675247,0.037625194,-0.23931162,-0.05365129,-0.16297534,-0.2823113,-0.19982056,0.22550324,0.23919089,-0.021773508,0.22858116,-0.120795116,-0.041150004,0.17083406,0.46472043,0.045901127,0.12975083,0.035915025,-0.17574364,0.27115545,0.24406773,-0.12496011,-0.17611335,-0.2721513,-0.36236453,-0.25133473,-0.1900397,0.18002355,-0.17382398,0.1339667,-0.32089517,0.32905382,-0.30224866,-0.08063445,0.18129809,-0.24057588,-0.2607153
TCGA-HC-7819-11A-01R-2118-07,-0.19554642,0.055348486,-0.25963908,0.40279517,0.106471956,-0.6312832,-0.2069474,-0.17796247,-0.30338356,0.13231175,-0.05185892,0.28997946,-0.18945655,0.24152449,-0.011744844,-0.23846805,0.09070396,-0.24685954,-0.0919932,-0.22625859,0.07722533,0.26265517,0.08278532,0.44578233,-0.19246313,0.047841456,0.22498259,0.434191,0.025151031,-0.021566296,0.16737527,-0.39676717,0.32160574,0.27374434,-0.17866066,-0.24033464,-0.22558182,-0.38112003,-0.23200253,-0.03411165,0.28247595,-0.2447497,0.12082816,-0.3408489,0.27713743,-0.15685675,-0.06604056,0.071250714,-0.11128094,-0.24386525
TCGA-HC-8258-11A-01R-2263-07,0.05308627,0.0062496755,-0.25370097,0.230319,-0.12775548,-0.28058845,-0.18791603,-0.09314586,-0.06255914,0.15491258,-0.18225116,0.14436299,-0.115785725,0.13462245,-0.122963525,-0.0062413155,-0.049852673,-0.20799592,-0.14643468,-0.24797754,0.17598914,0.24480517,0.05044375,0.34143007,-0.1599642,-0.07417105,0.21259795,0.356877,0.10618501,0.022819381,0.124592766,-0.20025565,0.2753769,0.24853073,-0.15380293,-0.26735762,-0.31309804,-0.2788804,-0.20971082,-0.006049611,0.30459478,-0.20897414,0.19709466,-0.2298729,0.024481988,0.10457677,-0.07689362,0.1576461,-0.16537017,-0.18121289
TCGA-HC-8259-11A-01R-2263-07,-0.22495043,-0.014017035,-0.2138987,0.35079712,-0.02862373,-0.5623526,-0.20823258,-0.19475111,-0.24652869,0.103905186,0.058549497,0.26625666,-0.1543469,0.32245803,0.028998375,-0.21372545,0.0092355395,-0.22231002,-0.2872804,-0.2039574,0.1367877,0.24579325,0.025385607,0.27339798,-0.18377492,0.03419025,0.19749051,0.42415646,0.03816095,0.112965606,0.12241739,-0.32223782,0.30684143,0.246808,-0.17096974,-0.25235125,-0.27198368,-0.32446966,-0.18814805,-0.060636207,0.2134021,-0.3012647,0.1277881,-0.3444849,0.29258305,-0.13229385,-0.07687673,0.106050715,-0.1409948,-0.21608786
TCGA-HC-8260-11A-01R-2263-07,-0.18172438,0.077177316,-0.18157923,0.39922366,0.0003296651,-0.62868476,-0.19195333,-0.18141961,-0.25575545,0.16554093,0.020353978,0.3378045,-0.12718137,0.26345405,-0.055440363,-0.18439661,0.083331496,-0.2111082,-0.24016993,-0.21818577,0.13614213,0.27783814,0.10685493,0.4847542,-0.20499383,0.05738552,0.20792429,0.4604389,0.0042772694,0.04999665,0.1242624,-0.339749,0.3022479,0.27159935,-0.17329013,-0.25482014,-0.22893934,-0.37087545,-0.20461816,-0.03641135,0.26724285,-0.26746795,0.15442772,-0.33350495,0.28184044,-0.1362577,-0.08295675,0.12606275,-0.13534927,-0.24053144
TCGA-HC-8262-11A-01R-2263-07,0.009961599,-0.07113719,-0.17599492,0.3467955,0.023518445,-0.45641756,-0.28253144,-0.05841283,-0.38443628,0.23499447,-0.1480574,0.15654977,-0.19065061,0.18510635,-0.07973672,-0.1564098,-0.025085965,-0.14992814,0.04656654,-0.21846324,0.08312281,0.22814833,0.14464518,0.35794744,-0.15962611,-0.07987928,0.23066485,0.2834216,0.11322532,-0.06671199,0.15163612,-0.175216,0.22927432,0.18261862,-0.18782859,-0.24718429,-0.25998297,-0.25339586,-0.057067476,-0.12867549,0.24780566,-0.2449263,0.093524806,-0.28319237,0.25855976,-0.26551905,0.011884884,0.089347556,-0.103501655,-0.23419918
TCGA-J4-A83J-11A-11R-A36G-07,-0.08948049,-0.03979865,-0.14232714,0.28390703,0.05358692,-0.4477828,-0.2691415,-0.10370557,-0.41996062,0.21737535,0.0008538714,0.4041474,-0.10931324,0.23655978,0.03586865,-0.20250145,-0.042924196,-0.090030566,-0.20929436,-0.2243835,0.15406115,0.23114792,0.068180226,0.35253632,-0.12194361,-0.0445961,0.14601688,0.34925783,0.007185179,0.00625583,0.04689021,-0.07432865,0.18849574,0.21476924,-0.06997812,-0.15835734,-0.29011127,-0.30197963,-0.23804171,-0.24119642,0.22123499,-0.20249015,0.0872529,-0.25245965,0.4184794,-0.323099,-0.06601679,0.15750588,-0.18057571,-0.34197208
TCGA-FU-A3EO-11A-13R-A213-07,-0.025717713,-0.16407856,0.076385364,0.23348941,-0.2730576,-0.1137971,-0.19478768,-0.08727337,-0.0011669291,0.045125112,0.24285208,0.22265474,-0.115858704,0.29752755,0.25232807,-0.18477732,-0.21445118,-0.18065768,-0.48881462,-0.17775773,0.21245332,0.336305,-0.24151847,-0.13193372,-0.2597872,-0.18163167,0.2684296,0.3561353,0.20101263,0.10008799,0.04625555,-0.38742372,0.28277376,0.32808998,-0.1818724,-0.24970615,-0.2089122,-0.12255862,-0.16313718,0.26217443,0.20734558,-0.2782799,0.2555101,-0.15717226,0.09352942,-0.14674917,-0.13674378,0.16504288,-0.17489545,0.09848722
TCGA-HM-A3JJ-11A-12R-A21T-07,0.058121286,-0.26900786,0.22088218,0.205404,-0.25620872,-0.04989656,-0.2265938,-0.042243846,-0.028000722,-0.0013495017,0.2810219,0.22717305,-0.16134143,0.30891243,0.34575114,-0.31965753,-0.29368636,-0.17842026,-0.3581132,-0.058114633,0.14639936,0.30712494,-0.38660142,-0.32570773,-0.2526041,-0.16448145,0.24894212,0.338753,0.16888222,0.025880188,0.057409983,-0.3547614,0.27153563,0.310691,-0.1965746,-0.24539626,-0.15794335,-0.11973999,-0.07920238,0.21482317,0.25026843,-0.28862014,0.30017817,-0.15434214,0.116401516,-0.24602489,-0.06695476,0.1683664,-0.24238256,0.2124318
TCGA-MY-A5BF-11A-11R-A26T-07,-0.039344605,-0.24588884,0.049104936,0.22134273,-0.22978857,-0.13475682,-0.20030087,0.112693086,-0.21922372,0.05636188,0.1929856,0.032208957,-0.15771121,0.31067085,0.03557638,-0.11392227,-0.2727485,-0.12741452,-0.31867632,-0.07552064,0.26366943,0.25011498,-0.07039143,-0.19240166,-0.16403086,-0.19567685,0.17130066,0.31084117,0.1146591,0.20024209,-0.051680245,0.20083414,0.15220971,0.22413369,-0.17670839,-0.21402478,-0.28952375,-0.18322673,-0.10807982,-0.1899956,0.18756492,-0.18480788,0.21998544,-0.23229605,0.2824712,-0.28510034,-0.080632284,0.23528875,-0.2479858,-0.074010596
TCGA-H6-8124-11A-01R-2404-07,0.17892398,-0.3056313,-0.054305412,0.16802111,-0.008150025,0.13907836,-0.08291218,-0.095539756,-0.1676071,0.13893048,-0.014094718,0.22804001,-0.13405176,0.09917045,0.21305893,-0.20504744,-0.1380079,-0.17572053,0.057558477,-0.1322723,0.13293657,0.17384475,-0.16739073,-0.19009358,-0.12659207,-0.17175065,0.13289607,0.13014282,0.2120109,-0.14632984,0.06309071,0.2587187,0.20078568,0.13425696,-0.13654812,-0.17357145,-0.16587335,-0.09765963,-0.19554071,-0.2062888,0.14351921,-0.13008992,0.15209137,-0.1919976,0.18881936,-0.1264508,-0.1432852,0.016338477,-0.0864028,-0.26478007
TCGA-H6-A45N-11A-12R-A26U-07,0.27838305,-0.17007829,-0.008552456,0.07100657,-0.07732915,0.36858264,0.0024053573,-0.07644929,0.1104675,0.15126088,0.15252396,0.16678941,-0.10703683,0.034156922,0.41841605,-0.24476533,-0.22814572,-0.16513285,-0.05400506,-0.10041237,0.28988197,0.22058217,-0.013290418,-0.16521886,-0.16306104,-0.22074194,0.152174,0.17419107,0.28344333,-0.058676288,0.07651116,0.12886555,0.1866831,0.18688242,-0.19873719,-0.15098356,-0.108593576,-0.1751471,0.081997395,-0.22506945,0.19184093,-0.075102694,0.1576541,-0.08039271,0.2812767,-0.35821053,0.06705483,0.013304717,-0.13286464,-0.18487312
TCGA-HV-A5A3-11A-11R-A26U-07,0.135489,-0.2455467,-0.07037701,0.14937536,-0.074037716,0.12743561,-0.020835534,-0.018759537,-0.09566827,0.0968154,-0.03186905,0.13512702,-0.045236304,0.06832148,0.08316909,-0.16630282,-0.1754845,-0.13416946,0.0021475258,-0.1794172,0.2554067,0.18574625,0.022649735,-0.06968437,-0.122718446,-0.21891512,0.13905796,0.19782734,0.17422996,-0.041084837,0.030912511,0.3468729,0.1441191,0.18986209,-0.16197295,-0.14245087,-0.179651,-0.1372144,-0.22536416,-0.25172162,0.20250186,-0.1431372,0.12101853,-0.19164334,0.24851339,-0.1510334,-0.1336666,0.06963991,-0.17308415,-0.2822993
TCGA-YB-A89D-11A-11R-A36G-07,0.14905968,-0.38917977,0.06263086,0.0983483,-0.070660666,0.17417958,-0.09414736,0.057473686,-0.20466042,0.110645056,0.07528689,0.114005275,-0.09405292,0.10251409,0.056297027,-0.30920348,-0.21800517,-0.06890465,0.034577057,-0.117450185,0.1895757,0.16669758,-0.094437055,-0.28766564,-0.070786364,-0.23579347,0.17755105,0.1486353,0.1397131,-0.0206256,0.0057366793,0.4211203,0.15249762,0.16137914,-0.15484779,-0.11923224,-0.25142363,-0.0416879,-0.1653162,-0.27105424,0.12151408,-0.095164105,0.1841722,-0.21971992,0.33952734,-0.38204893,-0.1305314,0.17438084,-0.19575356,-0.21680059
TCGA-A7-A0CE-11A-21R-A089-07,0.114985354,-0.36428413,-0.12949784,0.14380965,-0.054189473,0.0918356,-0.2723271,0.18434146,-0.45956805,0.22625002,-0.26601735,0.04485212,-0.101410426,0.0075767096,0.27614748,-0.14915328,-0.2428902,-0.11109247,-0.42431074,-0.15955123,0.18885885,0.26779315,0.012421785,-0.25393584,-0.11260647,-0.26392016,0.1392246,0.19090962,0.15043193,-0.0073033837,0.011410856,0.073855124,0.17284784,0.24457878,-0.10163785,-0.12539758,-0.2112788,-0.31023243,-0.041758683,0.285709,0.21752235,-0.20923302,0.041631024,-0.19399476,0.32346788,-0.15582205,0.15145616,0.28555968,0.19109978,-0.5735562
TCGA-A7-A0CH-11A-32R-A089-07,0.08325053,-0.3792279,0.03138251,0.11135521,-0.15643573,0.19183359,-0.23898174,0.11984648,-0.37189913,0.11533726,-0.09865063,0.06104658,-0.08555732,0.07238351,0.26268616,-0.27756688,-0.2822657,-0.022638438,-0.43314573,-0.10876827,0.13164334,0.25607598,-0.07732128,-0.4131641,-0.15522169,-0.32471454,0.1777375,0.1840545,0.1894352,0.016166974,0.034506503,0.07760427,0.16534655,0.23664027,-0.14814866,-0.12538022,-0.1877347,-0.2541025,0.048006848,0.2875983,0.20018536,-0.25758812,0.1559243,-0.122980975,0.25537777,-0.24944226,0.19077833,0.35416391,0.056972276,-0.38163725
TCGA-A7-A0D9-11A-53R-A089-07,0.21189938,-0.37859628,0.2607239,0.20613267,-0.33250895,0.31456867,-0.21818562,-0.08395298,-0.06271493,-0.022280652,0.10903125,0.023620218,-0.16070376,0.20299038,0.43644315,-0.40234414,-0.36714712,-0.07034095,-0.23629794,-0.021143163,-0.14935006,0.32632458,-0.3838062,-0.6421184,-0.30637312,-0.24455443,0.2957435,0.079985864,0.23590274,-0.07348013,0.24902631,-0.24671185,0.2216097,0.2727822,-0.27484548,-0.2123135,0.021570569,-0.0952997,0.21832329,0.46283108,0.22390172,-0.3492648,0.33517244,-0.090324536,0.085933946,-0.1742536,0.2302514,0.29228956,-0.0931771,0.2029153
TCGA-A7-A0DB-11A-33R-A089-07,0.22808303,-0.38546446,0.27303123,0.13911818,-0.3244514,0.32735342,-0.23825459,-0.060401514,-0.016281864,-0.069606975,0.1368267,-0.025383422,-0.14853814,0.22490716,0.4037405,-0.42911014,-0.363453,-0.0926661,-0.15655057,-0.024100194,-0.0773569,0.30696192,-0.3914776,-0.61239976,-0.30454546,-0.19446799,0.33666888,0.09081173,0.27076873,-0.068764836,0.2009988,-0.19230573,0.28797862,0.2499541,-0.2376246,-0.20620514,-0.0001699085,-0.10623067,0.1981515,0.36121297,0.17879866,-0.27495593,0.30615687,-0.12464658,0.07005344,-0.26303858,0.18550521,0.2455362,-0.06887469,0.12720752
TCGA-A7-A13E-11A-61R-A12P-07,0.16263902,-0.4491547,0.14372475,0.16202424,-0.23373556,0.28870887,-0.27574447,-0.06492157,-0.3208059,0.014014413,-0.061406232,0.06168031,-0.16059332,0.046873033,0.4153789,-0.37362927,-0.29640558,-0.052195136,-0.25490016,-0.06803081,-0.06172807,0.2744254,-0.38024747,-0.57467955,-0.21520238,-0.25606006,0.2289566,0.08545372,0.21525657,-0.110292904,0.1516798,-0.16318464,0.21708272,0.2563623,-0.1878202,-0.16176528,0.012672753,-0.17151208,0.08096165,0.53499484,0.21086457,-0.334481,0.23618037,-0.14024027,0.15587121,-0.0964439,0.2018589,0.27571034,0.069751985,-0.15378313
TCGA-A7-A13F-11A-42R-A12P-07,0.20225604,-0.42590785,0.06812075,0.1440446,-0.16183653,0.24284218,-0.24205121,0.043776505,-0.39219743,0.15537533,-0.14065264,0.1389837,-0.09219949,0.008457052,0.3740359,-0.27273837,-0.2566122,-0.059908923,-0.35339534,-0.14886753,0.008960737,0.25456092,-0.22949785,-0.43215302,-0.20330784,-0.28106812,0.21762028,0.103133395,0.22133449,-0.15836273,0.123589315,-0.14536226,0.19639304,0.26866192,-0.17257161,-0.1764992,-0.089525975,-0.21125737,0.07996678,0.534685,0.1975398,-0.3032302,0.14951618,-0.109548956,0.20177688,-0.13243215,0.19539471,0.30287147,0.14951536,-0.32435986
TCGA-A7-A13G-11A-51R-A13Q-07,0.18081558,-0.27531204,0.23191456,0.14244004,-0.32437727,0.3456121,-0.21129803,-0.20506161,0.049693566,-0.051842853,0.11227801,0.11468694,-0.18503578,0.140617,0.47850475,-0.37765393,-0.35285613,-0.12147,-0.3079084,-0.085440435,-0.21093717,0.32072654,-0.45530885,-0.6331523,-0.36254266,-0.20843625,0.33750796,0.14684789,0.27680492,-0.10802508,0.30148542,-0.4354477,0.26202732,0.33593234,-0.259673,-0.21863054,0.11374648,-0.059851658,0.24917226,0.6341034,0.2318046,-0.41269386,0.34696233,-0.088798836,0.053010665,-0.05204613,0.17608511,0.17389032,-0.13586263,0.2308617
TCGA-AC-A23H-11A-12R-A157-07,0.20764051,-0.43974882,-0.085081615,0.17959055,-0.117393084,0.12290595,-0.32765126,-0.11315257,-0.47450805,0.17140868,-0.21226224,-0.035827585,-0.14232469,0.039831307,0.45963827,-0.23723502,-0.18676144,-0.12190627,-0.232493,-0.04879217,0.01096591,0.27357697,-0.23922892,-0.42628187,-0.15363957,-0.20285928,0.22243568,0.045756273,0.22620152,-0.19839159,0.16459593,-0.24642365,0.21564028,0.27409908,-0.20868443,-0.17874244,-0.07316154,-0.25487372,0.047068376,0.5925109,0.20582925,-0.23598826,0.11758264,-0.112108596,0.17345072,-0.07368147,0.12537622,0.1788485,0.22263472,-0.42990032
TCGA-AC-A2FB-11A-13R-A17B-07,0.1845326,-0.45485318,0.031924333,0.15915002,-0.108320884,0.1592813,-0.2851687,0.059008002,-0.46591973,0.15893076,-0.17210796,0.06795455,-0.116773196,0.05463317,0.43326548,-0.28964207,-0.26476577,-0.047793195,-0.34665206,-0.0712865,0.108484,0.296475,-0.1987724,-0.47376862,-0.15318209,-0.24059126,0.20934638,0.105564006,0.22248465,-0.07775392,0.087089,-0.06843799,0.1904565,0.23055989,-0.15515198,-0.16565518,-0.11622773,-0.27198035,-0.0057214475,0.4188829,0.17698312,-0.23090746,0.11549713,-0.12867929,0.22490023,-0.152075,0.14285782,0.28830302,0.17539245,-0.430752
TCGA-AC-A2FF-11A-13R-A17B-07,0.1699897,-0.40334997,-0.13650982,0.142551,-0.0035627875,0.12778589,-0.24494779,0.05704008,-0.50893426,0.24135554,-0.27312294,0.12788095,-0.11526156,-0.041236572,0.35482034,-0.2444909,-0.13809985,-0.15845312,-0.13270427,-0.13384421,0.1703841,0.23678286,-0.02373524,-0.20370346,-0.11757005,-0.25719607,0.15183398,0.08542308,0.14567202,-0.19933222,0.10185371,-0.030758204,0.18949357,0.21389069,-0.13359255,-0.18128417,-0.15148315,-0.287351,0.005795676,0.30686197,0.2102325,-0.14794293,0.03694184,-0.17964566,0.31246156,-0.14910413,0.10873447,0.16769165,0.24288839,-0.6011494
TCGA-AC-A2FM-11B-32R-A19W-07,0.033698704,-0.3685791,-0.051874533,0.11391917,-0.16033433,0.03678651,-0.1993156,0.35418528,-0.3627742,0.17966135,-0.16535102,0.035126828,-0.0418418,0.06911625,0.15713005,-0.070595756,-0.29714912,-0.052740484,-0.6520471,-0.1920831,0.28902262,0.26583686,0.09552587,-0.15570809,-0.13628921,-0.3342542,0.111434974,0.2623709,0.10178271,0.19149862,-0.080017716,0.15546924,0.21031871,0.22379902,-0.09478968,-0.15661794,-0.29410422,-0.32003078,-0.11407225,0.15428795,0.24743862,-0.26641127,0.105246544,-0.18065895,0.36276868,-0.21935542,0.13837992,0.43618459,0.16008589,-0.50624555
TCGA-BH-A0AU-11A-11R-A12P-07,0.21948902,-0.2725105,-0.18485516,0.14579564,0.036543008,0.07275389,-0.17946917,0.061235905,-0.48875684,0.38961035,-0.343673,0.20160884,-0.08269052,-0.11212146,0.35718498,-0.08149616,-0.1301639,-0.11111535,-0.2944107,-0.22801633,0.11831585,0.28068116,-0.018137125,-0.041409798,-0.17864813,-0.2821629,0.13335952,0.13755654,0.22204362,-0.21054672,0.16954616,-0.20800357,0.19087088,0.27277753,-0.12544203,-0.18701652,-0.11130616,-0.32810134,-0.039553456,0.48447657,0.2749049,-0.27734646,-0.035012346,-0.1482463,0.20926966,-0.056210108,0.14383514,0.19385883,0.3411601,-0.6147803
TCGA-BH-A0AY-11A-23R-A089-07,0.15818295,-0.3835382,-0.015825396,0.15344575,-0.12740728,0.14100596,-0.26304725,0.04200116,-0.46351662,0.17992261,-0.21055944,0.052746966,-0.16088054,0.03457099,0.3623627,-0.15687494,-0.22846667,-0.076809645,-0.31777704,-0.10246889,0.025685715,0.2716906,-0.16670248,-0.3764566,-0.1662363,-0.250564,0.1672263,0.08493778,0.23307914,-0.10966689,0.16786076,-0.19952188,0.20149587,0.28111443,-0.14686365,-0.19258873,-0.08883165,-0.24038002,0.036381263,0.4678738,0.19806735,-0.31851494,0.109019384,-0.14127748,0.17769377,-0.111340724,0.1706547,0.27070218,0.17262153,-0.40146506
TCGA-BH-A0AZ-11A-22R-A12P-07,0.18632562,-0.29020452,-0.18431853,0.16102944,0.042380854,0.06980083,-0.24916156,-0.028402962,-0.5390645,0.30980784,-0.3810395,0.23623012,-0.13941823,-0.09059252,0.46601105,-0.13495798,-0.096838824,-0.1389505,-0.24860215,-0.1690638,0.045112148,0.26738033,-0.105646946,-0.12620732,-0.15244932,-0.2653484,0.11791595,0.088571176,0.20406583,-0.2867206,0.12686542,-0.2440076,0.15094535,0.24574864,-0.15264553,-0.16545744,-0.12225219,-0.2634216,-0.055017643,0.4390929,0.2556297,-0.25743645,-0.02615131,-0.17916039,0.23537281,-0.056764882,0.110545196,0.16485421,0.30310035,-0.6167966
TCGA-BH-A0B3-11B-21R-A089-07,0.20351243,-0.37985983,-0.13612297,0.13107917,-0.036720656,0.15110633,-0.25743222,-0.026886543,-0.48480275,0.26220936,-0.3037851,0.09467915,-0.1214569,-0.061203685,0.43030012,-0.1765925,-0.14408137,-0.13013422,-0.265532,-0.16805257,0.079743326,0.26355568,-0.09455642,-0.29306713,-0.169566,-0.23303097,0.14054307,0.112036824,0.20093642,-0.22463402,0.1363745,-0.14288454,0.20284243,0.24821682,-0.14767669,-0.16384323,-0.112559065,-0.2535661,0.009340168,0.43101674,0.21461955,-0.25164005,0.00038860558,-0.1434959,0.22946928,-0.063042276,0.17638361,0.18680564,0.294477,-0.56800216
TCGA-BH-A0B5-11A-23R-A12P-07,0.11607359,-0.26408377,0.337891,0.12968042,-0.39692396,0.26309434,-0.21197501,-0.11413263,0.10158532,-0.11985286,0.17638658,0.025505768,-0.16257735,0.22025746,0.3665404,-0.3894915,-0.39166376,-0.116489135,-0.3832733,-0.08029671,-0.15434429,0.3663898,-0.38028777,-0.59527844,-0.34036708,-0.203361,0.31649503,0.20362926,0.2527438,-0.032679874,0.28309926,-0.4048572,0.29012224,0.3728505,-0.28800222,-0.23100291,0.03985646,-0.09397533,0.24827231,0.55543256,0.25027022,-0.45292106,0.42000565,-0.09786155,-0.031819712,-0.067183316,0.16918309,0.25070974,-0.16948044,0.30327004
TCGA-BH-A0B7-11A-34R-A115-07,0.19686387,-0.27437887,-0.2580848,0.1616219,0.017183045,0.09948024,-0.23710494,0.023809066,-0.4898778,0.32557577,-0.37862578,0.17156231,-0.1108217,-0.10814083,0.39441997,-0.11338037,-0.115000665,-0.15953942,-0.2203775,-0.18366829,0.112891816,0.2899023,0.005580587,-0.07995394,-0.22836563,-0.21197896,0.12082463,0.09784011,0.24116004,-0.22986697,0.15388882,-0.2588077,0.18736798,0.28268483,-0.14830902,-0.18944098,-0.09644157,-0.295014,-0.0044224104,0.504019,0.2816532,-0.2662623,-0.021360043,-0.14822607,0.22989169,-0.041569192,0.20525987,0.16815872,0.36316884,-0.64979976
TCGA-BH-A0B8-11A-41R-A089-07,0.16689351,-0.31318423,0.30697313,0.16844577,-0.37584603,0.2888489,-0.24610244,-0.11608546,-0.08654296,-0.05048479,0.08220213,0.06565634,-0.15669194,0.16078067,0.3963421,-0.42100185,-0.3383914,-0.09827012,-0.2515092,-0.07015073,-0.1669387,0.28721046,-0.4008433,-0.54125094,-0.33477634,-0.23405245,0.27862817,0.12135743,0.28075087,-0.07710391,0.2856483,-0.3374005,0.25364998,0.32815185,-0.223105,-0.18020365,0.05877791,-0.12913252,0.20049925,0.5475961,0.22582117,-0.35761398,0.3550788,-0.1159005,0.064313255,-0.14953244,0.18991427,0.26052853,-0.11532708,0.16327748
TCGA-BH-A0BA-11A-22R-A19E-07,0.17796162,-0.37319762,-0.018902492,0.14525272,-0.0014462285,0.12689275,-0.23670287,-0.02292654,-0.5104789,0.19861709,-0.23425172,0.14631064,-0.09291157,-0.014956452,0.36419097,-0.23828053,-0.17900905,-0.09507607,-0.09333224,-0.1403598,0.038103364,0.25924742,-0.1771935,-0.30121177,-0.20253505,-0.235695,0.17159846,0.08430225,0.17534049,-0.21723767,0.11281069,-0.05436475,0.1623396,0.24354933,-0.16712968,-0.14012785,-0.08729558,-0.22147031,-0.0052339244,0.36327782,0.21501052,-0.23631175,0.09005408,-0.113633715,0.29424408,-0.12593251,0.112077445,0.2030848,0.17693086,-0.422306
TCGA-BH-A0BC-11A-22R-A089-07,0.20011654,-0.40092257,-0.053046994,0.15086156,-0.086049005,0.11709625,-0.22929081,0.11221602,-0.49844083,0.15950388,-0.3000532,0.009652403,-0.16955529,-0.0045728944,0.33045265,-0.20545012,-0.2631705,-0.09584451,-0.25862673,-0.12429566,0.07949908,0.25231317,-0.08122232,-0.317814,-0.20096071,-0.27439722,0.13331877,0.108027816,0.2133766,-0.08185326,0.10366026,-0.12149896,0.19457558,0.24389139,-0.12952085,-0.18899779,-0.15581864,-0.22853059,0.015174289,0.4631576,0.2307549,-0.25732806,0.122798,-0.13081074,0.19368592,-0.1912657,0.20280641,0.31382415,0.1914199,-0.42728388
TCGA-BH-A0BJ-11A-23R-A089-07,0.21512528,-0.3576451,-0.1500458,0.16059133,0.03692588,0.061285127,-0.2924982,0.036530856,-0.5333774,0.2788738,-0.35121506,0.0679907,-0.14451069,-0.067670606,0.34308103,-0.15117918,-0.1674045,-0.13916449,-0.19855875,-0.113942795,0.12007382,0.2723597,-0.03735417,-0.16871758,-0.1782027,-0.2889621,0.15577,0.054713447,0.21351922,-0.19003244,0.12126834,-0.21327685,0.20093192,0.23990871,-0.13170245,-0.19716531,-0.13135372,-0.28312448,0.0011767467,0.4736819,0.25630733,-0.28353664,0.016820895,-0.12875837,0.19655478,-0.114881314,0.11001049,0.22232588,0.28884453,-0.54889774
TCGA-BH-A0BM-11A-12R-A089-07,0.13030954,-0.30572015,-0.18678832,0.2065982,-0.028246017,-0.011594072,-0.25373325,0.21294656,-0.45577756,0.27644545,-0.30601504,-0.06533925,-0.07856856,-0.018972449,0.22809643,-0.09115538,-0.1715121,-0.16114394,-0.28874338,-0.14293991,0.15517443,0.29327098,0.06824502,-0.040498532,-0.23825447,-0.2169771,0.16467546,0.19161548,0.24016538,-0.032868475,0.070390426,-0.16584411,0.23259689,0.27318922,-0.17595217,-0.23207463,-0.1509074,-0.30420282,-0.04395089,0.41606656,0.3061689,-0.23467872,0.02363968,-0.13638659,0.20789418,-0.11827462,0.157365,0.2988673,0.2477828,-0.5306287
TCGA-BH-A0BQ-11A-33R-A115-07,0.19081077,-0.36053187,-0.12735033,0.1591884,0.038123664,0.08752911,-0.28625575,0.061817024,-0.520614,0.24014013,-0.3349239,0.12607758,-0.13960628,-0.12264139,0.38627684,-0.18996526,-0.111585334,-0.14656962,-0.18210132,-0.1260648,0.085232005,0.26939568,-0.0771754,-0.17147672,-0.20920922,-0.25513023,0.17710797,0.07283778,0.19432122,-0.249649,0.11460157,-0.17503662,0.18704626,0.2602059,-0.17854114,-0.19436914,-0.09719811,-0.19978784,0.0069260234,0.4657551,0.25489122,-0.27928483,0.037016805,-0.10572959,0.21801575,-0.12121333,0.11726463,0.16683333,0.29055992,-0.53923637
TCGA-BH-A0BS-11A-11R-A12P-07,0.15963964,-0.33900037,-0.19080879,0.11947742,-0.01015517,0.0330916,-0.19655582,0.10329574,-0.46689886,0.25688902,-0.3590688,0.008551724,-0.13702236,-0.07961865,0.2878786,-0.09646279,-0.14569275,-0.14143193,-0.36140728,-0.173766,0.15260242,0.30642188,0.058063395,-0.14791928,-0.20163245,-0.2302882,0.14951941,0.18450868,0.21272096,-0.12090082,0.09869569,-0.08720892,0.22130327,0.27532974,-0.11838936,-0.19053897,-0.17566276,-0.30702406,-0.034902215,0.46911106,0.27000833,-0.27702537,0.03843262,-0.18415716,0.23582426,-0.046501458,0.18986088,0.2569231,0.2690821,-0.5602705
TCGA-BH-A0BT-11A-21R-A12P-07,0.13489735,-0.28699473,-0.25537953,0.16712868,-0.013862216,-0.0384258,-0.24010351,0.050662894,-0.4592863,0.29364222,-0.43489245,0.020947838,-0.18273705,-0.05922344,0.29519197,-0.031803723,-0.12063719,-0.19582938,-0.29391074,-0.12639295,0.11284589,0.28593537,0.02028867,-0.08059302,-0.20620683,-0.21784396,0.14231579,0.14396247,0.20110652,-0.12205338,0.1295811,-0.20457128,0.19605398,0.26396978,-0.18448195,-0.20768361,-0.17348856,-0.30578864,-0.060721457,0.4871186,0.3010302,-0.32352823,0.025420507,-0.14745605,0.1966448,-0.048847955,0.124813884,0.2203533,0.3311015,-0.55244493
TCGA-BH-A0BV-11A-31R-A089-07,0.22260451,-0.33437034,-0.14865042,0.18701175,0.03249493,0.083544835,-0.29432043,0.088376544,-0.56692284,0.26724923,-0.34640792,0.16329159,-0.16961734,-0.03455384,0.3338186,-0.1710346,-0.17094603,-0.07499658,-0.23721965,-0.128349,0.058295913,0.26248375,-0.06400968,-0.1858252,-0.1767366,-0.3257164,0.124621086,0.07559382,0.19335298,-0.18450801,0.12569925,-0.25583133,0.15888178,0.2791222,-0.16829664,-0.1706648,-0.10641211,-0.24944665,-0.036466043,0.53007966,0.2874425,-0.26975986,0.0002914081,-0.15472503,0.23942529,-0.08942969,0.17329629,0.23499332,0.27196848,-0.5404378
TCGA-BH-A0BW-11A-12R-A115-07,0.25460514,-0.42147878,-0.09094031,0.11921777,0.012627673,0.27060083,-0.28317952,0.015017464,-0.41547212,0.2728223,-0.23745902,0.10622725,-0.11960238,-0.07034451,0.4817265,-0.24675594,-0.16856633,-0.065006614,-0.003151824,-0.08697578,0.21875632,0.23013875,-0.062044173,-0.22597829,-0.110380806,-0.2501516,0.10730908,0.00755536,0.28346458,-0.23561993,0.09334969,0.042952694,0.17228046,0.18752834,-0.15512624,-0.17074642,-0.0987681,-0.2937306,0.050455686,0.21497236,0.14830372,-0.12479471,0.040863696,-0.08275555,0.31816116,-0.21425058,0.14292702,0.15817186,0.18579759,-0.5501351
TCGA-BH-A0BZ-11A-61R-A12P-07,0.20223825,-0.37837508,0.017978055,0.14455734,-0.17947392,0.24408673,-0.25854334,-0.029197033,-0.396364,0.11022937,-0.21201473,0.10591831,-0.16015996,-0.013714015,0.43864983,-0.2749872,-0.23678268,-0.061565142,-0.26665092,-0.07207604,-0.0551406,0.27732953,-0.23713797,-0.5173631,-0.2005723,-0.30946785,0.19425942,0.07912435,0.23171923,-0.13802354,0.16093059,-0.1505693,0.18855375,0.26417264,-0.18446375,-0.18231438,-0.030731456,-0.19528626,0.09842734,0.4921231,0.2320778,-0.32920328,0.16168283,-0.1333896,0.16402444,-0.14048184,0.215651,0.2796788,0.14122935,-0.32259542
TCGA-BH-A0C0-11A-21R-A089-07,0.14946115,-0.28819236,-0.23207632,0.21159685,0.020863196,0.014710258,-0.2638229,0.03680554,-0.5211007,0.32949874,-0.3592185,0.18009605,-0.11217754,-0.107037626,0.35696226,-0.11189007,-0.12476938,-0.14150442,-0.25973812,-0.15366937,0.1062428,0.32198617,-0.049440283,-0.09916744,-0.23371519,-0.22937286,0.13260198,0.11933778,0.2107661,-0.22291486,0.13527194,-0.26147276,0.19574851,0.26717994,-0.111051,-0.16068994,-0.10705286,-0.25526905,-0.050355043,0.49588633,0.293551,-0.2679218,0.0071026194,-0.11852933,0.25569952,-0.042355448,0.16330783,0.18018869,0.27441186,-0.604311
TCGA-BH-A0C3-11A-23R-A12P-07,0.21096659,-0.36772704,-0.17812066,0.17644839,0.046233293,0.1268116,-0.23170568,0.049703564,-0.5050604,0.3647307,-0.28960657,0.14103591,-0.09129042,-0.08141529,0.38343003,-0.171547,-0.17005046,-0.11137258,-0.28372023,-0.16486207,0.12976806,0.25501305,-0.0060035787,-0.16974504,-0.1649298,-0.25824952,0.11925803,0.12467579,0.19537221,-0.23710437,0.121987656,-0.16008492,0.20654558,0.2286397,-0.14197643,-0.18884617,-0.11563201,-0.29468897,-0.047698297,0.49694148,0.28522637,-0.22172146,-0.03292413,-0.09881893,0.22136131,-0.09284038,0.16155934,0.16517085,0.31799826,-0.6213395
TCGA-BH-A0DD-11A-23R-A12P-07,0.17002499,-0.35032317,0.31483534,0.16758391,-0.3295261,0.33776772,-0.25667334,-0.1211123,-0.05962649,-0.02379521,0.14648966,0.10959423,-0.1619553,0.13051674,0.41933438,-0.41563252,-0.3338596,-0.09532424,-0.2702944,-0.051019903,-0.110042386,0.32356012,-0.44351077,-0.5503969,-0.31495187,-0.26612994,0.29340988,0.14246318,0.22208376,-0.10490721,0.2678788,-0.27933586,0.27967408,0.29992542,-0.225568,-0.22391096,-0.023703368,-0.068295464,0.15508509,0.48117694,0.20807794,-0.32774523,0.30031997,-0.09458701,0.05591701,-0.17933787,0.14788656,0.2292009,-0.10070697,0.20299053
TCGA-BH-A0DG-11A-43R-A12P-07,0.24048464,-0.34679055,-0.23896013,0.1501842,0.024133641,0.09529409,-0.23193915,-0.030602755,-0.49558467,0.29890925,-0.39711025,0.10199091,-0.14042012,-0.12071113,0.49413446,-0.11919349,-0.1332897,-0.1321512,-0.1408533,-0.13617499,0.081911825,0.278718,-0.04850888,-0.1998628,-0.20587447,-0.223684,0.16788848,0.059853636,0.23329498,-0.30801412,0.17712016,-0.23107375,0.22169164,0.23808904,-0.17667687,-0.21893993,-0.08102676,-0.26477018,0.030277917,0.5815223,0.28526843,-0.28847855,0.0028209495,-0.11533031,0.16490403,-0.020057142,0.1108078,0.14160657,0.33828652,-0.6080479
TCGA-BH-A0DH-11A-31R-A089-07,0.11616955,-0.40389484,-0.01528187,0.16581398,-0.1439549,0.07638482,-0.22903633,0.21550436,-0.41346973,0.1731261,-0.13901411,0.014164554,-0.046354312,0.08364504,0.20818159,-0.12218865,-0.28007862,-0.0960844,-0.5204186,-0.15769067,0.16956872,0.2572778,-0.042177297,-0.30023688,-0.20870146,-0.2956062,0.1448934,0.2126102,0.16280329,0.10170442,0.034206107,-0.023565948,0.19174659,0.24644826,-0.103771076,-0.17772162,-0.17396547,-0.27867472,-0.011974569,0.32526955,0.23275428,-0.29226717,0.13419329,-0.13820389,0.21553606,-0.20356357,0.1989731,0.39761627,0.14718613,-0.42640784
TCGA-BH-A0DK-11A-13R-A089-07,0.15160792,-0.20091504,-0.22182913,0.1854177,-0.0023701247,-0.012251439,-0.25661054,0.033170395,-0.48498076,0.2538686,-0.40108505,0.089228794,-0.17979524,-0.03776997,0.20076764,-0.1316762,-0.10897531,-0.18075652,-0.124502905,-0.11584604,0.0841113,0.252114,0.07504005,-0.03244296,-0.18106033,-0.19662589,0.16866624,0.106180064,0.19271865,-0.1952641,0.1625837,-0.19278902,0.20675468,0.25890988,-0.20375125,-0.16252494,-0.14443573,-0.27575645,0.007180579,0.3986426,0.30537397,-0.29141718,0.037529644,-0.19649184,0.24173187,-0.08303471,0.14790425,0.16100748,0.2637701,-0.4988379
TCGA-BH-A0DL-11A-13R-A115-07,0.21889624,-0.44332954,-0.020444555,0.10844303,-0.005867534,0.2349004,-0.2993471,-0.01787097,-0.503185,0.24168469,-0.23899709,0.15706237,-0.10649073,-0.07528622,0.4626555,-0.23441558,-0.18531851,-0.0949453,-0.23432866,-0.1529999,0.12314699,0.29233408,-0.15848471,-0.34529573,-0.10655793,-0.28154436,0.13036162,0.07016053,0.2013453,-0.20417683,0.13333052,-0.10993328,0.18960129,0.2713397,-0.13065723,-0.13208322,-0.10120938,-0.24768879,-0.0014256837,0.41777834,0.20981711,-0.2198199,0.04291291,-0.10240706,0.29105532,-0.114653476,0.19047529,0.23485713,0.2061007,-0.5203959
TCGA-BH-A0DO-11A-22R-A12D-07,0.2048413,-0.34781277,-0.21724692,0.15205573,0.050324433,0.098191515,-0.25431952,0.040798157,-0.5120484,0.33053336,-0.35052925,0.11082603,-0.10671045,-0.061594147,0.42048818,-0.14424086,-0.17459075,-0.11105428,-0.28086138,-0.178989,0.106916286,0.26107106,-0.03219896,-0.16998592,-0.17970736,-0.23713109,0.12610774,0.13862784,0.20806475,-0.24659686,0.12603004,-0.19650045,0.19357324,0.26704717,-0.14691582,-0.20486255,-0.08233713,-0.28434718,-0.019962851,0.513789,0.2263318,-0.28509822,0.025039477,-0.12559153,0.20889422,-0.05681399,0.14586733,0.18750402,0.33880445,-0.57877755
TCGA-BH-A0DP-11A-12R-A089-07,0.12251632,-0.24647626,-0.1671937,0.17308944,-0.0082198195,-0.015710182,-0.21023738,0.057893366,-0.47989792,0.32938612,-0.37544575,0.13847186,-0.173343,-0.062032823,0.35856307,-0.075676315,-0.13242246,-0.14321329,-0.28394213,-0.17144021,0.051451672,0.29687354,-0.038253743,-0.13990803,-0.19703022,-0.24330434,0.12888674,0.11783277,0.19592199,-0.21045902,0.1385722,-0.20751236,0.22283453,0.24548528,-0.18957318,-0.17881791,-0.12155492,-0.25555888,-0.08883336,0.48435524,0.2942867,-0.31157875,0.06776778,-0.15352789,0.19560193,-0.08226591,0.16222319,0.23229133,0.25711477,-0.5152078
TCGA-BH-A0DQ-11A-12R-A089-07,0.17702863,-0.3056889,-0.23561941,0.15796484,0.033650007,0.06900759,-0.23135115,-0.048980504,-0.5066019,0.32063225,-0.3256107,0.17761576,-0.09367364,-0.071913384,0.3574683,-0.1473314,-0.122412525,-0.17290668,-0.18173896,-0.17185545,0.09403547,0.25486574,-0.045212124,-0.15858847,-0.17186464,-0.22738488,0.17578948,0.13831362,0.18750378,-0.22361602,0.11631439,-0.23053052,0.17241222,0.2644321,-0.14851813,-0.15751499,-0.09049736,-0.25911132,-0.059312705,0.43755957,0.24261512,-0.26331973,0.05228728,-0.15588936,0.23202856,-0.049820617,0.138437,0.19087207,0.28888226,-0.59026426
TCGA-BH-A0DT-11A-12R-A12D-07,0.20932843,-0.30172285,-0.18701056,0.14989063,-0.014574066,0.039719876,-0.28887132,0.008685923,-0.53143835,0.25336838,-0.40122142,0.14974946,-0.11697661,-0.09280858,0.35713583,-0.112391956,-0.121739514,-0.17871724,-0.25727558,-0.18092127,0.040834665,0.27603096,-0.0033647022,-0.14339076,-0.18883154,-0.2596634,0.1650214,0.09223197,0.21674645,-0.17128213,0.16952454,-0.25753438,0.18237703,0.2594054,-0.13731194,-0.21211322,-0.12741822,-0.23854545,-0.008397952,0.5348853,0.27466065,-0.3100284,0.040926363,-0.12110613,0.23196623,-0.046717335,0.14048842,0.21061745,0.30262822,-0.5618861
TCGA-BH-A0DV-11A-22R-A12P-07,0.18068638,-0.26953843,-0.1945309,0.14210722,0.0006239042,-0.018165903,-0.30141923,-0.014772038,-0.52732176,0.26417032,-0.43638715,0.12737629,-0.18910763,-0.061808936,0.35647094,-0.11828954,-0.12314202,-0.17687044,-0.23505309,-0.1562802,0.052570406,0.2770167,-0.043200582,-0.101445034,-0.23268004,-0.21558648,0.1588447,0.10043994,0.20176399,-0.20844644,0.16100803,-0.31134838,0.19215563,0.3026788,-0.1749987,-0.19884984,-0.09411521,-0.23214708,0.010937004,0.50182027,0.28794634,-0.32457912,0.05695986,-0.16475429,0.16328596,-0.053664543,0.088987805,0.15829314,0.30664518,-0.50865525
TCGA-BH-A0DZ-11A-22R-A089-07,0.1277183,-0.31454414,-0.18242328,0.12620112,-0.04953507,-0.024489881,-0.21412459,0.27033854,-0.4443198,0.21972354,-0.22445576,0.0067143887,-0.06930099,-0.01618487,0.073769175,-0.10021497,-0.2264461,-0.14819974,-0.31734937,-0.20821656,0.28070673,0.2622806,0.1676962,-0.040346045,-0.15520234,-0.291998,0.12546262,0.22610943,0.13924234,0.016460653,0.0019195846,0.05051203,0.17043991,0.25993672,-0.07800558,-0.17997229,-0.24284625,-0.31761292,-0.07344353,0.26823512,0.28822693,-0.269924,0.06869265,-0.1629581,0.32194284,-0.18211576,0.14524488,0.34321073,0.24178603,-0.56252766
TCGA-BH-A0E0-11A-13R-A089-07,0.13799599,-0.2817757,-0.16808031,0.16819882,-0.10158425,-0.045614347,-0.20361188,0.22662216,-0.3799887,0.20267868,-0.24511163,-0.023383262,-0.07762412,0.043625787,0.08641063,-0.05206508,-0.20413575,-0.1355796,-0.36292022,-0.16810651,0.20440571,0.28373075,0.15867434,-0.06371318,-0.23737083,-0.27971122,0.20111194,0.2295881,0.13155769,0.026127152,0.04027559,-0.07881491,0.19853473,0.30625996,-0.13293365,-0.20168823,-0.19130391,-0.30428013,-0.031443715,0.39727694,0.26087484,-0.31505314,0.07306004,-0.16337995,0.20922014,-0.14353965,0.15052061,0.38022748,0.26413682,-0.48246452
TCGA-BH-A0E1-11A-13R-A089-07,0.1276047,-0.27846983,-0.20705487,0.17956507,0.00676646,0.0105276,-0.24696864,0.1524034,-0.3910427,0.26078558,-0.33025417,-0.003150248,-0.13505735,-0.05108084,0.225779,-0.059388988,-0.17286678,-0.18940406,-0.29681328,-0.18914504,0.19156423,0.28682566,0.12766895,-0.037791613,-0.20382929,-0.23838039,0.1514098,0.16659912,0.2189882,-0.11213396,0.105165996,-0.18677707,0.19690837,0.3052875,-0.15177014,-0.26029897,-0.16660541,-0.36783105,0.004090673,0.42271745,0.31620944,-0.29550558,0.035740584,-0.19135691,0.15503684,-0.06864108,0.14737073,0.2650142,0.2791705,-0.47351825
TCGA-BH-A0H5-11A-62R-A115-07,0.20813258,-0.30768505,-0.1837193,0.10618483,0.024216646,0.05308242,-0.24410805,0.01971015,-0.5230588,0.35842034,-0.39824682,0.20168318,-0.08335875,-0.11108101,0.3992606,-0.11566324,-0.12311627,-0.1261301,-0.29215962,-0.20168616,0.08882843,0.2641168,0.0018188682,-0.1049422,-0.19981042,-0.27518636,0.08359783,0.12755495,0.17912628,-0.24646671,0.11960061,-0.21140832,0.17088033,0.2784061,-0.13206969,-0.17238626,-0.08911472,-0.27803275,-0.01801705,0.46461067,0.2814793,-0.28756693,-0.019123606,-0.13596731,0.24116232,-0.041802507,0.14918317,0.16193368,0.31148347,-0.67106694
TCGA-BH-A0H7-11A-13R-A089-07,0.11320847,-0.31161004,-0.14893399,0.12204638,-0.062750466,-0.0060787895,-0.2424747,0.1299597,-0.454609,0.24817178,-0.26304114,-0.022636842,-0.11274665,0.0036606498,0.12902613,-0.10504828,-0.19632497,-0.14705959,-0.2826981,-0.16008078,0.190195,0.28575554,0.06696626,-0.11613609,-0.1844331,-0.26168725,0.14623144,0.11179443,0.1796424,-0.09586669,0.05504762,-0.05813424,0.19893226,0.24031334,-0.1396123,-0.15264805,-0.17828798,-0.32657886,-0.02167798,0.44017372,0.25499567,-0.2643724,0.074868545,-0.14435983,0.2752465,-0.13486038,0.14931525,0.32960206,0.21143278,-0.52908075
TCGA-BH-A0H9-11A-22R-A466-07,0.09670376,-0.2821979,0.31685534,0.14368539,-0.43881014,0.25587213,-0.19429848,0.06208643,0.12819211,-0.13432293,0.31878024,-0.011475049,-0.09160119,0.25348398,0.25576654,-0.30277243,-0.42631197,-0.11234958,-0.51819724,-0.08388271,0.02763823,0.34387907,-0.32505056,-0.5271172,-0.31656802,-0.2449084,0.34345207,0.262616,0.18090147,0.1481814,0.14647426,-0.17903608,0.24557705,0.3571342,-0.20140952,-0.20592874,-0.029009957,-0.11794439,0.093116276,0.4065787,0.22225343,-0.37335014,0.3759369,-0.17471462,0.10631796,-0.14588004,0.09235751,0.37207186,-0.20652296,0.2847276
TCGA-BH-A0HA-11A-31R-A12P-07,0.2121207,-0.29178524,-0.24099362,0.12630269,0.036111932,0.058531996,-0.21731958,0.0790947,-0.4613077,0.37155226,-0.3767839,0.10304335,-0.1375359,-0.1292494,0.38857064,-0.10771687,-0.07364029,-0.19347076,-0.23709644,-0.2086004,0.14230298,0.3198995,0.04822254,0.04016929,-0.20470475,-0.22994721,0.10779664,0.124927044,0.21577147,-0.22225966,0.16324292,-0.28156054,0.18789242,0.26003638,-0.14285618,-0.20125386,-0.14025494,-0.3236163,-0.027741449,0.5293926,0.2821592,-0.31121302,-0.013511464,-0.13233961,0.18199426,-0.009454957,0.1519302,0.19094236,0.32203695,-0.6365558
TCGA-BH-A0HK-11A-11R-A089-07,0.07517317,-0.36875117,-0.01735971,0.16101654,-0.08542106,0.044976857,-0.2795354,0.17601222,-0.44407645,0.13859104,-0.23610632,0.02008688,-0.13289139,0.034505747,0.28876546,-0.14509231,-0.23705113,-0.1352675,-0.2655421,-0.09885036,0.12269897,0.3004863,-0.10616832,-0.24511385,-0.18281873,-0.2727129,0.17009012,0.1578211,0.19536904,-0.055328906,0.05124723,-0.048889846,0.21241899,0.23929729,-0.18261877,-0.21312864,-0.1508085,-0.24029745,0.003992266,0.3348098,0.21229511,-0.30027458,0.14369807,-0.19633709,0.22865799,-0.2200745,0.116599284,0.3496826,0.1338163,-0.34575465
TCGA-BH-A18J-11A-31R-A12D-07,0.21205996,-0.320327,-0.046380874,0.12938838,-0.056038734,0.14578137,-0.25810543,0.091974676,-0.46254066,0.23805363,-0.2972694,0.13964121,-0.13762207,-0.092036314,0.35442165,-0.1722554,-0.18474518,-0.08358278,-0.27993664,-0.15707287,0.041658714,0.3100072,-0.06510159,-0.26472142,-0.21440862,-0.29409522,0.14810061,0.08970155,0.1949621,-0.1459257,0.12546034,-0.13294196,0.18282208,0.25641364,-0.13584211,-0.19527423,-0.098071024,-0.21583037,0.0057663484,0.46565446,0.28530675,-0.32758474,0.08771268,-0.11055733,0.2154343,-0.14865692,0.18832317,0.27369598,0.19079474,-0.44254413
TCGA-BH-A18K-11A-13R-A12D-07,0.17816368,-0.31003845,-0.06666145,0.14491937,-0.0033881085,0.093928985,-0.2202032,-0.0031287512,-0.49493366,0.28454682,-0.29175368,0.24924794,-0.11809075,-0.09031628,0.37734044,-0.17557849,-0.1329351,-0.09782887,-0.2714158,-0.18840502,0.02125732,0.27089307,-0.1324744,-0.12928143,-0.26646167,-0.27557763,0.14077924,0.088758565,0.1670834,-0.24241742,0.15159419,-0.3169673,0.17713375,0.28128123,-0.12919225,-0.13007274,-0.10192158,-0.27099115,-0.0220835,0.55818677,0.32349545,-0.3301179,0.048060104,-0.112482384,0.26419547,-0.04269235,0.16552106,0.20591861,0.2211514,-0.5174485
TCGA-BH-A18L-11A-42R-A12D-07,0.15249959,-0.39043167,0.04769745,0.10923341,-0.1344408,0.2041074,-0.26965696,0.07379827,-0.46344268,0.14697884,-0.20654064,0.17682672,-0.1186688,-0.031870183,0.36805156,-0.21883403,-0.22911996,-0.031918943,-0.34642106,-0.11014823,0.015566446,0.29671377,-0.19022694,-0.41191715,-0.21040927,-0.31596842,0.20739998,0.09173907,0.18721108,-0.15587394,0.14531405,-0.16837059,0.20059808,0.31010318,-0.14241603,-0.17300765,-0.104129575,-0.17998055,0.01275326,0.47286898,0.21266289,-0.3107722,0.09830376,-0.16015702,0.23008323,-0.12586911,0.2023806,0.322208,0.17734562,-0.3679646
TCGA-BH-A18M-11A-33R-A12D-07,0.19270682,-0.41934738,0.042010136,0.12267132,-0.056815125,0.22355263,-0.29086778,0.008225151,-0.44306245,0.22297616,-0.24200521,0.2065491,-0.13316402,-0.01679728,0.42190513,-0.26463404,-0.18230978,-0.066646695,-0.24812683,-0.13808069,0.04148416,0.25201187,-0.21878602,-0.31951082,-0.16295831,-0.28851265,0.17838319,0.10349317,0.17694592,-0.19356233,0.11252405,-0.14924511,0.17940794,0.25187194,-0.14452127,-0.12365954,-0.071262896,-0.18360098,0.028439673,0.42156193,0.22904746,-0.28370222,0.09169565,-0.124652356,0.27405134,-0.14968672,0.15629087,0.2689552,0.14346202,-0.38270342
TCGA-BH-A18N-11A-43R-A12D-07,0.18646409,-0.3741924,0.02717682,0.103566535,-0.0799129,0.14855596,-0.29077977,0.0045651444,-0.4681741,0.21961719,-0.3058583,0.20575026,-0.13028543,-0.06524262,0.44631854,-0.20850176,-0.19655158,-0.06998537,-0.31484255,-0.14342432,0.023552725,0.2556349,-0.1958344,-0.33629242,-0.21165659,-0.30726448,0.19000128,0.097451404,0.21756615,-0.15851368,0.11824853,-0.16954887,0.18409207,0.2750028,-0.13116634,-0.17591196,-0.0564217,-0.22281095,-0.0109581305,0.4709853,0.2595597,-0.2831373,0.06592298,-0.115627125,0.2180667,-0.09001746,0.14638576,0.23664476,0.16298959,-0.444286
TCGA-BH-A18P-11A-43R-A12D-07,0.17877287,-0.3243319,0.04847595,0.15917546,-0.16631345,0.13233723,-0.2595809,-0.06593402,-0.36407885,0.17036486,-0.23093465,0.10556597,-0.1370911,-0.009741855,0.39169514,-0.22965913,-0.21506476,-0.0540924,-0.34807992,-0.14211923,-0.10484845,0.3276515,-0.2050687,-0.38284272,-0.30879742,-0.25869247,0.23577,0.10127694,0.22058377,-0.16854553,0.17743197,-0.38438314,0.24036323,0.30579922,-0.16274022,-0.16784415,-0.0062035215,-0.23696218,0.06461899,0.64952,0.28441998,-0.3891656,0.15578489,-0.10605242,0.13230799,-0.018770076,0.16589913,0.25570133,0.11813485,-0.29533416
TCGA-BH-A18Q-11A-34R-A12D-07,0.2035244,-0.35456052,-0.12435876,0.11146629,-0.002546844,0.10889769,-0.28787532,-0.055410367,-0.50096095,0.3362402,-0.33407685,0.21825087,-0.16764678,-0.059994087,0.47737855,-0.16866046,-0.11453842,-0.06500835,-0.2685508,-0.18680777,0.038177323,0.2718279,-0.13546017,-0.18103266,-0.2008911,-0.25361922,0.16385902,0.08635433,0.21818916,-0.25121725,0.11359557,-0.22385953,0.15074283,0.24916212,-0.14864154,-0.17414048,-0.09603743,-0.22981103,-0.02880582,0.5091206,0.2530631,-0.2956024,0.034608576,-0.08232655,0.22081536,-0.06714414,0.16534732,0.1806115,0.2581042,-0.5574094
TCGA-BH-A18R-11A-42R-A12D-07,0.20444287,-0.3793641,-0.03485889,0.15927012,-0.06855576,0.17206655,-0.24331012,-0.04284857,-0.46689484,0.25553584,-0.25842774,0.18208885,-0.13238387,-0.033627044,0.4363567,-0.24502303,-0.14549705,-0.070780866,-0.2817113,-0.16108036,-0.0001823498,0.29589182,-0.18903063,-0.33135033,-0.2070659,-0.2506238,0.19513267,0.08023728,0.20951718,-0.2314886,0.16360973,-0.29996273,0.23010905,0.24346618,-0.111432716,-0.15549664,-0.074559495,-0.23344156,-0.024836592,0.59990484,0.25467902,-0.36020806,0.049405854,-0.05680093,0.22849138,-0.05840236,0.14988217,0.22875781,0.2277103,-0.46081218
TCGA-BH-A18S-11A-43R-A12D-07,0.17992307,-0.38080958,-0.022835197,0.10963124,-0.10951032,0.17624459,-0.25254375,0.11256702,-0.38304856,0.18935892,-0.2952138,0.10167019,-0.12694584,-0.03691719,0.38918367,-0.20005998,-0.2050343,-0.077122465,-0.2986656,-0.12700114,0.027215434,0.31236443,-0.112873524,-0.32368997,-0.18038428,-0.29156992,0.1572998,0.119082846,0.23218022,-0.1159366,0.12090139,-0.006651485,0.19485241,0.22168356,-0.1193073,-0.14604972,-0.14438942,-0.20669542,0.11131803,0.37109336,0.21260835,-0.30526918,0.1312505,-0.12704037,0.21112946,-0.15643467,0.15898177,0.27427793,0.17141493,-0.44429415
TCGA-BH-A18U-11A-23R-A12D-07,0.21021077,-0.34097153,-0.08325,0.104780175,0.011104607,0.14968514,-0.30337703,0.048620846,-0.56055534,0.26900214,-0.3300039,0.123040654,-0.15250668,-0.0815823,0.36393654,-0.14099218,-0.1855024,-0.0910166,-0.25460404,-0.13497019,0.07794981,0.2759118,-0.07954468,-0.20876811,-0.12762272,-0.23911059,0.18353552,0.10946774,0.20502163,-0.20042235,0.116632625,-0.1325897,0.16564965,0.25726134,-0.1578495,-0.20032732,-0.104288496,-0.22966918,-0.010217926,0.44206014,0.23339823,-0.25104243,0.04083598,-0.13044316,0.2574733,-0.13176768,0.19467337,0.2281774,0.23174304,-0.551183
TCGA-BH-A18V-11A-52R-A12D-07,0.11756306,-0.36991134,-0.055361036,0.14638428,-0.17916897,0.124751166,-0.13734943,0.3161581,-0.28603792,0.20531249,-0.10805955,0.022786412,0.0010359284,0.047009256,0.20179766,-0.04466044,-0.26877853,-0.080840856,-0.67814267,-0.17538974,0.20241974,0.29552802,0.086727284,-0.23641813,-0.14708798,-0.34335282,0.13767654,0.3073431,0.10278485,0.18637007,-0.029875929,0.07510183,0.19520773,0.2442974,-0.082264856,-0.17069335,-0.2548634,-0.34853688,-0.056520253,0.28754064,0.24629462,-0.30347946,0.0979531,-0.20692661,0.25137448,-0.2584954,0.179876,0.40897724,0.18195178,-0.5599674
TCGA-BH-A1EN-11A-23R-A13Q-07,0.15020572,-0.43105683,0.12880352,0.120982125,-0.17775038,0.23044924,-0.33647877,-0.0012300684,-0.3599298,0.10714216,-0.113752834,0.099915065,-0.113235995,0.027384765,0.41542956,-0.3349137,-0.27838343,-0.031189928,-0.31782556,-0.11914472,0.017793922,0.27623883,-0.30043,-0.49629876,-0.18162057,-0.26451245,0.24595171,0.09647909,0.19165641,-0.113947704,0.12950301,-0.17063631,0.19291945,0.26511303,-0.18169114,-0.19929774,-0.062040072,-0.21733958,0.084101796,0.48474124,0.23334558,-0.3098043,0.14779995,-0.10622886,0.19875392,-0.15328422,0.15190682,0.2639442,0.0774266,-0.33615118
TCGA-BH-A1EO-11A-31R-A137-07,0.13018784,-0.4281124,0.23454964,0.14314343,-0.41248706,0.3788002,-0.20033318,-0.07067803,0.012374729,-0.14709638,0.17735435,-0.09386064,-0.14995049,0.2466974,0.43062317,-0.33961508,-0.38976637,-0.10752442,-0.32309884,0.011063282,-0.009506083,0.33003008,-0.3755829,-0.7299997,-0.28278905,-0.21296492,0.3577443,0.16791119,0.25391746,0.06098648,0.13291125,-0.09656362,0.2461705,0.31170553,-0.2530635,-0.24734128,-0.08481762,-0.10599046,0.19341941,0.35213307,0.15295666,-0.31968975,0.33817485,-0.1414416,0.08788261,-0.22497861,0.112928115,0.29600042,-0.10465235,0.19444644
TCGA-BH-A1ET-11B-23R-A137-07,0.22273687,-0.3594422,-0.044069722,0.13084373,-0.07917328,0.189635,-0.27034834,-0.08438013,-0.47039393,0.28287795,-0.28609228,0.19155385,-0.15235692,-0.055388644,0.5279104,-0.18887928,-0.14399162,-0.113367066,-0.26064965,-0.15859316,-0.005769857,0.26427397,-0.24291465,-0.363237,-0.22718684,-0.28770357,0.16490582,0.05004188,0.23015732,-0.27171797,0.18229492,-0.26263085,0.18817408,0.2556831,-0.17842123,-0.19275601,-0.05682989,-0.21402259,0.05103934,0.54057187,0.23693503,-0.29515466,0.069606304,-0.10202914,0.16594733,-0.07816929,0.15634768,0.15290567,0.21072716,-0.45607972
TCGA-BH-A1EU-11A-23R-A137-07,0.20552395,-0.3607081,-0.11285612,0.14376098,-0.05466132,0.12521392,-0.2549673,-0.11494541,-0.4531198,0.23405248,-0.35075098,0.08611318,-0.18731448,-0.02686134,0.50715834,-0.1798209,-0.15119624,-0.15510032,-0.1889357,-0.105389655,-0.03355627,0.33092186,-0.13956434,-0.31567585,-0.17797445,-0.21619529,0.18113571,0.0443558,0.26809826,-0.25692743,0.19672908,-0.2894047,0.1982739,0.27867198,-0.16958466,-0.22836076,-0.057279438,-0.22544616,0.085665114,0.6213671,0.28627548,-0.27811044,0.05106139,-0.08661833,0.13377728,-0.08757015,0.14447626,0.14361355,0.27795178,-0.46707863
TCGA-BH-A1EV-11A-24R-A137-07,0.25702855,-0.3529265,-0.12186177,0.16055568,-0.037477676,0.17726448,-0.34707078,-0.10954691,-0.53108484,0.24854003,-0.35813454,0.059017386,-0.19820203,0.0126827825,0.48166922,-0.20895949,-0.13663493,-0.12872802,-0.10699769,-0.08311952,-0.014800713,0.24921387,-0.18603116,-0.4258048,-0.17835338,-0.20491953,0.14354311,-0.0019822314,0.21503977,-0.2775389,0.19015257,-0.22729436,0.17012477,0.2588479,-0.23441768,-0.1879284,-0.029662322,-0.22434533,0.10603211,0.5042896,0.18364552,-0.23378164,0.05275408,-0.09474326,0.18549898,-0.049822126,0.17390472,0.21192065,0.21137634,-0.48048335
TCGA-BH-A1EW-11B-33R-A137-07,0.2540634,-0.3474788,-0.2119122,0.15658878,-0.0052502584,0.15096717,-0.28787473,-0.100820094,-0.42823938,0.2645729,-0.3787339,0.072684914,-0.19934578,-0.069318414,0.433998,-0.16657782,-0.114902735,-0.11682358,-0.12257488,-0.13500936,0.040702444,0.26034304,-0.113016896,-0.2812712,-0.17576872,-0.21802366,0.158405,0.011443778,0.21272533,-0.27234283,0.23147717,-0.260388,0.13601802,0.24402386,-0.22042823,-0.20520005,-0.106274985,-0.24188153,0.07220343,0.53192043,0.25526223,-0.26861417,0.031991035,-0.14264935,0.20885925,-0.03938035,0.18031943,0.13606715,0.3202157,-0.5391229
TCGA-BH-A1F0-11B-23R-A137-07,0.14203641,-0.44726735,-0.008556986,0.13106139,-0.13995676,0.18492453,-0.29513437,0.013095929,-0.43769917,0.18961503,-0.22148873,0.029864518,-0.1407784,0.024938567,0.41853675,-0.19125947,-0.2148729,-0.08532634,-0.3667688,-0.112965226,0.077116154,0.2926425,-0.16928963,-0.4425567,-0.17438735,-0.28918403,0.19589444,0.087158784,0.22529107,-0.121012695,0.11847282,-0.19394827,0.18897673,0.25854138,-0.18011872,-0.1897835,-0.11592056,-0.22824802,0.040191356,0.47726318,0.23292202,-0.3392267,0.108535945,-0.106589645,0.17289084,-0.0885165,0.15565069,0.2331911,0.18994375,-0.41192174
TCGA-BH-A1F2-11A-32R-A13Q-07,0.24248044,-0.3956949,0.06558929,0.12926273,-0.12780891,0.2399918,-0.3130401,-0.016054628,-0.4345722,0.19931284,-0.20678015,0.21041295,-0.11345935,-0.02949007,0.43719232,-0.30274284,-0.21613365,-0.059205186,-0.2939132,-0.13392763,-0.06825635,0.26233804,-0.24568109,-0.4071276,-0.2215008,-0.2880385,0.2038446,0.10769595,0.19717439,-0.20767082,0.1748627,-0.25056982,0.21726239,0.26170546,-0.13413213,-0.16674787,-0.014828785,-0.15043966,0.05645003,0.53320193,0.23369305,-0.3570312,0.12398683,-0.11336057,0.20162648,-0.10235936,0.21030359,0.24540839,0.09800637,-0.29600787
TCGA-BH-A1F6-11B-94R-A13Q-07,0.21889211,-0.40106595,-0.021412775,0.15408193,-0.14992163,0.20714176,-0.37663314,-0.16195396,-0.49820164,0.11836152,-0.28364614,0.035139557,-0.19373581,0.03825718,0.51566017,-0.33974484,-0.18216503,-0.11362808,-0.15141009,-0.016983386,-0.10752758,0.25570616,-0.3560375,-0.601365,-0.17635092,-0.19050576,0.21399239,0.006947136,0.24621832,-0.27013046,0.19214332,-0.265253,0.21708173,0.22459729,-0.19408326,-0.149003,-0.0064151958,-0.19638512,0.15922795,0.5828714,0.23672715,-0.278166,0.11252412,-0.10914095,0.15848711,-0.08230885,0.17001924,0.17642839,0.18756717,-0.33225396
TCGA-BH-A1F8-11B-21R-A13Q-07,0.18113673,-0.42760023,-0.051428255,0.10946587,-0.10710842,0.118972465,-0.3206941,0.028537747,-0.46859422,0.19150563,-0.25424588,-0.009578326,-0.16565207,0.01890607,0.3475548,-0.21635655,-0.19968183,-0.120207325,-0.2768383,-0.11892753,0.060310204,0.30056006,-0.1399203,-0.3977857,-0.16905028,-0.2484268,0.2133607,0.08981939,0.2401165,-0.1020871,0.06814927,-0.1694607,0.20701626,0.24830493,-0.15537375,-0.16922271,-0.10724342,-0.2190884,0.029326666,0.5001602,0.2079066,-0.28162152,0.096679665,-0.12890102,0.18025568,-0.10111091,0.13491297,0.28331652,0.24298245,-0.46158856
TCGA-BH-A1FB-11A-33R-A13Q-07,0.21163036,-0.34547436,-0.17224976,0.13199513,0.00409888,0.08542075,-0.24481189,-0.0031434153,-0.47245595,0.2754015,-0.35551423,0.13136865,-0.09543927,-0.06682882,0.4320978,-0.1609266,-0.10784666,-0.12825574,-0.26428938,-0.19953236,0.057357386,0.27850863,-0.03360744,-0.19469024,-0.15965259,-0.22334237,0.14874987,0.09615017,0.2359301,-0.18424751,0.08557539,-0.16696963,0.19595493,0.26975864,-0.11162415,-0.18676637,-0.12753858,-0.2632404,-0.01805747,0.42124787,0.27552867,-0.2876448,-0.008768035,-0.14258893,0.23999456,-0.084492125,0.15650763,0.20159496,0.28689182,-0.5740653
TCGA-BH-A1FC-11A-32R-A13Q-07,0.15288495,-0.39139166,-0.031462364,0.1202817,-0.1536928,0.16960873,-0.28063267,0.008249509,-0.3962518,0.13442099,-0.21018341,0.030894453,-0.117558084,-0.0034264612,0.36033323,-0.18247911,-0.2185399,-0.082466505,-0.36028957,-0.13090931,0.08349965,0.26888484,-0.13667509,-0.43597543,-0.16583945,-0.2602015,0.18800375,0.1425626,0.1811987,-0.045400638,0.07548668,-0.057910822,0.17353623,0.25120118,-0.1546947,-0.19827116,-0.12693861,-0.20885332,0.0489953,0.35432088,0.23628654,-0.26902458,0.13213193,-0.14148514,0.20839022,-0.15519734,0.1732612,0.2534644,0.13443871,-0.4054333
TCGA-BH-A1FD-11B-21R-A13Q-07,0.16854379,-0.41877013,-0.016914854,0.14528602,-0.20404485,0.20688449,-0.28788027,-0.068287745,-0.3880901,0.13445885,-0.21911956,-0.009965032,-0.18573737,0.0013988772,0.41270068,-0.21134701,-0.24643965,-0.082038455,-0.33317012,-0.09006088,-0.04425939,0.29606795,-0.1996239,-0.52637005,-0.228487,-0.2404616,0.25213024,0.047550716,0.24248904,-0.09793826,0.19039074,-0.2724487,0.19829723,0.30196407,-0.20713207,-0.20752937,-0.0356034,-0.2041364,0.1428082,0.56191397,0.21938588,-0.34073526,0.16643676,-0.12739234,0.12438471,-0.048041184,0.1647128,0.22911257,0.19624878,-0.337023
TCGA-BH-A1FE-11B-14R-A13Q-07,0.2761097,-0.34501517,-0.23121913,0.18195583,0.00028360472,0.16009884,-0.3039035,-0.14067763,-0.49657604,0.3199842,-0.40993398,-0.011829624,-0.1598251,-0.08144763,0.4958345,-0.15365592,-0.06574198,-0.18338399,-0.12462314,-0.083491355,0.02604049,0.2862851,-0.06107703,-0.30596477,-0.2174677,-0.18302083,0.20250309,0.023885757,0.2882716,-0.32396522,0.22689123,-0.38391128,0.19820051,0.251268,-0.22742845,-0.22645432,-0.033107504,-0.21932282,0.14091507,0.6806361,0.27235684,-0.2530333,0.0061779665,-0.15720353,0.15580569,0.015770346,0.16950764,0.05575159,0.347516,-0.53422385
TCGA-BH-A1FG-11B-12R-A13Q-07,0.19997329,-0.32447523,-0.18079442,0.20475928,-0.16369604,0.026157819,-0.33277637,-0.10331488,-0.38969707,0.12617198,-0.29142475,-0.32944986,-0.2107247,0.122380525,0.40282714,-0.06597948,-0.14295025,-0.19993363,-0.24524191,0.00091122004,-0.029498821,0.29684082,-0.09232021,-0.5066677,-0.279789,-0.14257397,0.25980735,0.097799525,0.25040233,-0.059685502,0.1629334,-0.3187724,0.2513414,0.338352,-0.25584954,-0.2658928,-0.04531029,-0.23887473,0.18839392,0.7229688,0.21685006,-0.32694483,0.1597237,-0.1762443,0.014582972,0.020625755,0.122842245,0.14855228,0.23290497,-0.3908583
TCGA-BH-A1FH-11B-42R-A13Q-07,0.17047302,-0.45285964,0.011565399,0.14692564,-0.14646326,0.18111746,-0.3197685,0.07927981,-0.4130378,0.16346753,-0.19858575,-0.04826815,-0.12918822,0.0570548,0.38600734,-0.20288973,-0.23753273,-0.09273335,-0.29893446,-0.06695661,0.09381806,0.25463378,-0.17085895,-0.46632943,-0.16594651,-0.28120974,0.20251004,0.08942662,0.2048344,-0.07304106,0.110647865,-0.032377776,0.2153057,0.23907772,-0.17163989,-0.17638119,-0.144506,-0.16220982,0.036034755,0.4052561,0.18727152,-0.25598547,0.16189773,-0.11453011,0.20933026,-0.18320213,0.15610622,0.31386793,0.17217185,-0.36901793
TCGA-BH-A1FJ-11B-42R-A13Q-07,0.22846478,-0.38902858,-0.1387059,0.17693877,-0.11125112,0.148385,-0.36889872,-0.18855554,-0.48089132,0.17371587,-0.3482453,-0.06944416,-0.21482705,0.010242641,0.52098817,-0.20434892,-0.14946537,-0.16799147,-0.13475133,0.0028655105,-0.038063955,0.2786216,-0.21226668,-0.5461192,-0.18195696,-0.18867177,0.22042444,-0.02653454,0.2588669,-0.2324723,0.19339462,-0.281097,0.22302045,0.2638079,-0.25079194,-0.23566744,0.005241238,-0.18365228,0.1651572,0.6466183,0.23362029,-0.27284622,0.1193815,-0.1504308,0.10651007,-0.026279535,0.14127998,0.10680403,0.25791728,-0.36788565
TCGA-BH-A1FM-11B-23R-A13Q-07,0.19418713,-0.3772399,-0.059740603,0.14211941,-0.079501055,0.15589958,-0.29674238,-0.041944552,-0.49978244,0.25482652,-0.30504772,0.17012866,-0.14960791,-0.017019307,0.4626328,-0.19698119,-0.16953939,-0.108784355,-0.25155342,-0.14578095,-0.0048409635,0.2824784,-0.14933516,-0.3229138,-0.21059382,-0.24696545,0.16852115,0.08855359,0.19121377,-0.21068272,0.17219369,-0.24350454,0.21444866,0.25370014,-0.1654459,-0.19517618,-0.070836164,-0.20458254,0.056775603,0.5650256,0.20853609,-0.3106783,0.07425461,-0.11133058,0.2232017,-0.08581981,0.14305942,0.18784523,0.23414183,-0.45410743
TCGA-BH-A1FN-11A-34R-A13Q-07,0.20826307,-0.4384714,-0.14339377,0.12179479,-0.13064767,0.19695601,-0.27786478,-0.028087046,-0.40120324,0.15993947,-0.2113295,-0.08003383,-0.17962827,0.026432632,0.46686417,-0.19547108,-0.19352661,-0.18037194,-0.21875958,-0.073172264,0.15682316,0.29377997,-0.14302185,-0.5020578,-0.15821326,-0.24883083,0.22767836,0.043181203,0.19968714,-0.09924628,0.10182378,-0.10876595,0.23375492,0.2236583,-0.18849601,-0.23095965,-0.101353906,-0.2711546,0.0860978,0.41201925,0.13046981,-0.1821161,0.09002482,-0.194604,0.18939842,-0.1466247,0.12696028,0.15988404,0.2018881,-0.46317878
TCGA-BH-A1FR-11B-42R-A13Q-07,0.17592156,-0.3637611,-0.079737015,0.08719575,-0.056712713,0.17137513,-0.25138015,-0.06988785,-0.461004,0.18748322,-0.27970967,0.119847625,-0.132983,-0.014547504,0.440451,-0.21422614,-0.1669578,-0.10730554,-0.24854204,-0.11686958,0.099652365,0.23649809,-0.11195788,-0.34090847,-0.1472961,-0.2446656,0.16661714,0.07760281,0.22302276,-0.1442545,0.10378891,-0.103670254,0.16096175,0.17994437,-0.13613479,-0.15009543,-0.13678935,-0.2667501,0.031541232,0.35708028,0.20838228,-0.22723265,0.054115564,-0.1755443,0.25401047,-0.15019402,0.101130486,0.16128747,0.20410348,-0.5551602
TCGA-BH-A1FU-11A-23R-A14D-07,0.22372009,-0.37464523,-0.066287555,0.13308789,-0.011505909,0.14451018,-0.2713394,0.016990313,-0.5207103,0.299202,-0.3068921,0.27112994,-0.10988725,-0.10821438,0.4357189,-0.19332887,-0.1816547,-0.11108883,-0.24732916,-0.1827092,0.07951575,0.26759562,-0.120989785,-0.17869498,-0.19647901,-0.26488853,0.14678559,0.087333046,0.1643736,-0.24945977,0.11744582,-0.1976247,0.18269351,0.24988784,-0.08435297,-0.14696687,-0.096123144,-0.23475407,-0.010186852,0.48075345,0.24378355,-0.29468182,0.03032542,-0.11197351,0.26171845,-0.08831504,0.15896292,0.19604279,0.27984446,-0.53451043
TCGA-BH-A203-11A-42R-A169-07,0.18407503,-0.3683651,-0.054673567,0.12827325,-0.069654845,0.19395402,-0.30699745,-0.100491084,-0.49853718,0.25665024,-0.32663694,0.05769495,-0.15765439,-0.03194366,0.4475891,-0.19741513,-0.12501355,-0.1220727,-0.1920119,-0.12255491,-0.036547862,0.27407286,-0.18453202,-0.3737285,-0.25334772,-0.23560098,0.20981386,0.057808768,0.2730213,-0.2717741,0.22691956,-0.355796,0.19676936,0.27583614,-0.21023482,-0.17706768,-0.029513221,-0.25278956,0.104903035,0.67548454,0.22435544,-0.31831387,0.06402183,-0.09310798,0.1457072,-0.013540199,0.2099563,0.17958972,0.25455108,-0.48440653
TCGA-BH-A204-11A-53R-A157-07,0.1845361,-0.41934305,0.22341964,0.1219087,-0.26610255,0.30133227,-0.34580994,-0.07795144,-0.24097754,0.016576156,0.019154089,0.09924528,-0.20865752,0.102358095,0.4038109,-0.3760423,-0.29558924,-0.078657985,-0.3207664,-0.0533149,-0.13999793,0.30921397,-0.41686648,-0.61336213,-0.27416274,-0.28055444,0.27610675,0.12990206,0.19437757,-0.101517074,0.19147807,-0.30089882,0.24012211,0.28868452,-0.20044413,-0.16863045,-0.01651885,-0.12353192,0.14457266,0.62026715,0.20204408,-0.34913233,0.25178078,-0.14000067,0.13113089,-0.16067618,0.17884687,0.33250898,-0.019474637,-0.0063336175
TCGA-BH-A208-11A-51R-A157-07,0.22607334,-0.3278974,-0.19496769,0.15661843,0.06512192,0.09394294,-0.2926876,0.047956977,-0.52889127,0.34481686,-0.3696198,0.114085495,-0.12934563,-0.07815691,0.40940648,-0.1434178,-0.13383916,-0.09933453,-0.27187568,-0.17721552,0.07739519,0.26769373,-0.042935554,-0.14129396,-0.24233681,-0.22941808,0.14080006,0.1262651,0.18906878,-0.22896826,0.1373245,-0.24235322,0.16334014,0.25308877,-0.1662803,-0.19782558,-0.08003253,-0.26890633,-0.03173939,0.5396476,0.24154769,-0.34647685,0.020267993,-0.16269077,0.2035355,-0.028933818,0.18396293,0.19943929,0.29516247,-0.5832527
TCGA-BH-A209-11A-42R-A157-07,0.19829053,-0.4324425,-0.074531354,0.15530396,-0.07188122,0.22527164,-0.31232485,-0.07807231,-0.4634867,0.17849894,-0.23369281,0.068916775,-0.1954997,-0.012315141,0.5013945,-0.22807772,-0.20422342,-0.058650814,-0.18682833,-0.06434805,0.02506301,0.28474787,-0.230083,-0.5008093,-0.1482641,-0.20413077,0.19684169,-0.0039279116,0.26173264,-0.18718946,0.15722612,-0.16588512,0.22380051,0.22174898,-0.20012279,-0.18534425,-0.055509027,-0.22211029,0.08490276,0.4856139,0.20920916,-0.24100341,0.1189051,-0.14317754,0.20340475,-0.070716254,0.19649558,0.21610011,0.20452152,-0.46993884
TCGA-E2-A153-11A-31R-A12D-07,0.19342153,-0.32471997,-0.110368334,0.13300902,0.038004667,0.09404387,-0.26979685,0.0726227,-0.47986877,0.23026383,-0.35146376,0.17597835,-0.12335545,-0.06623141,0.34516096,-0.18987058,-0.18020643,-0.11053804,-0.17394672,-0.16270836,0.08695708,0.21846586,-0.023338998,-0.09187171,-0.17051928,-0.32057947,0.13111871,0.061596226,0.16756089,-0.19094141,0.07984595,-0.07922856,0.14247036,0.23238084,-0.1494813,-0.18281522,-0.16507475,-0.29710484,-0.027031723,0.31867462,0.27598473,-0.22389452,0.03457702,-0.12946093,0.2968521,-0.16223097,0.10952931,0.16453122,0.26371253,-0.5777622
TCGA-E2-A158-11A-22R-A12D-07,0.13140826,-0.40031907,0.27506503,0.13897675,-0.21587615,0.21016476,-0.28438833,-0.030901687,-0.24139579,0.02927992,0.071864165,0.17988619,-0.1782927,0.13675168,0.34928307,-0.42092296,-0.2819699,-0.023314985,-0.25659123,-0.013567329,-0.027479995,0.27385032,-0.46695083,-0.45449263,-0.20605324,-0.22132243,0.21952374,0.15551251,0.18354273,-0.12990357,0.16158569,-0.26371902,0.20961174,0.24933062,-0.16234188,-0.1885966,-0.05539925,-0.12661523,0.033461895,0.42798442,0.22086908,-0.3089403,0.23856094,-0.10628421,0.20742224,-0.17736253,0.063140176,0.27349368,-0.0872039,-0.024470134
TCGA-E2-A15I-11A-32R-A137-07,0.19181223,-0.38161227,0.15880068,0.14362206,-0.23095082,0.23992567,-0.28077963,-0.18232086,-0.2072017,0.07773221,0.0074666054,0.05926139,-0.14516348,0.11493363,0.43264887,-0.29067916,-0.25614512,-0.10300436,-0.27729693,-0.07096723,-0.16320328,0.3340169,-0.3192241,-0.5587462,-0.29709426,-0.18064016,0.2908124,0.10293864,0.2451677,-0.15626524,0.25440252,-0.4031727,0.23782827,0.31298935,-0.24300577,-0.17977822,0.064998604,-0.1887718,0.21220165,0.72037596,0.26124942,-0.41309676,0.2540262,-0.08426401,0.10907199,-0.0060383193,0.17133586,0.24444544,0.050587595,-0.045400776
TCGA-E2-A15K-11A-13R-A12P-07,0.07607903,-0.4566263,0.14463617,0.09163405,-0.22091469,0.19901496,-0.2255249,0.28546357,-0.34813762,0.11324024,0.005792181,0.035349194,-0.080220014,0.10064698,0.2327288,-0.18476568,-0.339032,-0.040154453,-0.56911457,-0.16207346,0.2398313,0.26331702,-0.07504311,-0.3595696,-0.124598816,-0.34203646,0.19546865,0.26347682,0.113568276,0.17076606,-0.065291286,0.14492726,0.1976084,0.26181424,-0.13881628,-0.16557923,-0.23694602,-0.28385627,-0.050750285,0.19503346,0.17080197,-0.2692825,0.13348275,-0.13482706,0.2803957,-0.34561628,0.13444252,0.45031402,0.06407229,-0.35409653
TCGA-E2-A15M-11A-22R-A12D-07,0.16685629,-0.409867,0.07251659,0.1546569,-0.11381202,0.10127877,-0.36003545,-0.023007765,-0.43827915,0.07838523,-0.2126236,0.077624284,-0.19725011,0.030902969,0.41816896,-0.240158,-0.22903289,-0.0760896,-0.2516392,-0.04367551,-0.03540374,0.28525427,-0.28709206,-0.45878428,-0.18642828,-0.29620478,0.22000888,0.08813097,0.22568372,-0.12642324,0.09691101,-0.20491643,0.18980928,0.2993775,-0.19108325,-0.20238765,-0.06248137,-0.19001335,0.0022545827,0.47026837,0.19765536,-0.32711703,0.1368049,-0.12569258,0.20563258,-0.15917693,0.09332108,0.28159747,0.12312641,-0.29138035
TCGA-E2-A1BC-11A-32R-A12P-07,0.12518106,-0.2424224,0.30654153,0.16261995,-0.3629198,0.21825974,-0.17149961,-0.038465213,0.134415,-0.03927446,0.22567675,0.05341872,-0.12864101,0.2469185,0.26596227,-0.28934172,-0.36837453,-0.13617975,-0.4114454,-0.13642308,-0.109510794,0.36088932,-0.2714131,-0.4619831,-0.37502146,-0.2159969,0.32615006,0.2393289,0.19668883,-0.0060432716,0.19221193,-0.3377425,0.27184492,0.3362394,-0.2520894,-0.2580579,0.019001959,-0.1066084,0.15656489,0.442534,0.2718976,-0.3807225,0.3456892,-0.041363887,0.11299264,-0.09152284,0.12848128,0.2907483,-0.15321185,0.25716987
TCGA-E2-A1IG-11A-22R-A144-07,0.17581083,-0.40601674,0.07751183,0.12689123,-0.14622645,0.185553,-0.3419406,0.029936515,-0.4051985,0.13597678,-0.18410726,0.18926613,-0.13505343,-0.045305435,0.36023667,-0.28667885,-0.23363945,-0.06955702,-0.2672786,-0.12568685,-0.045239706,0.26450154,-0.21155043,-0.40827918,-0.25654393,-0.30388469,0.21042508,0.09854142,0.20056319,-0.18732828,0.14910375,-0.19372003,0.22286277,0.2926696,-0.11607186,-0.13603435,-0.046616744,-0.19151132,0.07502098,0.48608813,0.2534985,-0.2863471,0.17475162,-0.12133099,0.21366179,-0.14626017,0.219141,0.28728935,0.12504214,-0.3038716
TCGA-E2-A1L7-11A-33R-A144-07,0.15697828,-0.36846775,-0.10893392,0.12322481,0.021107662,0.14153098,-0.29198804,0.12351777,-0.50827223,0.2713248,-0.30382708,0.14157937,-0.12952186,-0.056898437,0.34768412,-0.15717475,-0.16068874,-0.13238932,-0.2737687,-0.1554242,0.1694546,0.26319543,-0.026730217,-0.20520532,-0.13225706,-0.2701644,0.14600424,0.12722346,0.2040133,-0.15066446,0.05186544,-0.029732704,0.16845523,0.23092872,-0.10229722,-0.20779239,-0.13458343,-0.26371425,-0.03694795,0.29269028,0.22799502,-0.2229368,0.040607825,-0.1401033,0.30985993,-0.17504756,0.13565935,0.23870824,0.23024634,-0.5593931
TCGA-E2-A1LB-11A-22R-A144-07,0.19902143,-0.26234496,-0.22627784,0.1364952,0.033312205,0.027077373,-0.2078751,0.12875183,-0.47633266,0.2671918,-0.32079604,0.10898812,-0.13698593,-0.10225841,0.23788948,-0.08716088,-0.12683731,-0.13376468,-0.18998732,-0.22703734,0.16316031,0.26482618,0.0906294,0.038172033,-0.23940553,-0.23570862,0.16337386,0.14553961,0.20262788,-0.19869958,0.13418524,-0.23069325,0.22928813,0.28535664,-0.124956876,-0.18888694,-0.17152947,-0.31326792,-0.089114286,0.48111433,0.3164335,-0.26380748,0.006636257,-0.13147235,0.21506286,-0.051810794,0.12312423,0.21735825,0.31269717,-0.58881634
TCGA-E2-A1LH-11A-22R-A14D-07,0.14224617,-0.2865062,-0.23463531,0.15834266,0.007409448,0.0202422,-0.1821358,0.09437616,-0.46270293,0.31497374,-0.40984276,0.05330317,-0.099838935,-0.10148825,0.29930344,-0.092762716,-0.12784366,-0.1198712,-0.30886835,-0.19541901,0.17130361,0.30596477,0.06533532,-0.019518498,-0.20705621,-0.22605342,0.1444998,0.14467336,0.19727716,-0.16461661,0.1158034,-0.117957845,0.20417999,0.26768926,-0.1516827,-0.158272,-0.17556019,-0.31972042,-0.04216972,0.3625835,0.2757559,-0.25755185,-0.008053784,-0.17759235,0.19974487,-0.065203846,0.1611671,0.18399736,0.27125478,-0.6487134
TCGA-E2-A1LS-11A-32R-A157-07,0.18419902,-0.32244122,0.30477953,0.1726627,-0.33042297,0.25833368,-0.316561,-0.1607676,-0.015342544,-0.02049231,0.091947265,0.05193527,-0.15553233,0.15341137,0.37364334,-0.37932113,-0.325282,-0.08197641,-0.27114725,-0.033544138,-0.15988047,0.35418752,-0.37267345,-0.5541702,-0.33399278,-0.20373216,0.3314075,0.14211722,0.25422218,-0.09145072,0.2859876,-0.46222958,0.2868094,0.3499779,-0.29603612,-0.22386631,0.052374605,-0.087517485,0.24052523,0.6726662,0.21567407,-0.4137325,0.34603316,-0.12751575,0.059933692,-0.04333943,0.17808196,0.27975896,-0.109217174,0.22483328
TCGA-E9-A1N4-11A-33R-A14M-07,0.24910845,-0.27556035,-0.24379808,0.11834276,0.042860933,0.08387309,-0.2759297,0.02804385,-0.47975588,0.31737056,-0.37504748,0.057976265,-0.10835034,-0.13172647,0.3826793,-0.09773707,-0.105504505,-0.17765838,-0.15794381,-0.20268404,0.12908739,0.29566273,0.0020841723,-0.10354089,-0.20779727,-0.21286292,0.17030053,0.09744184,0.2217148,-0.2320056,0.1463232,-0.22306135,0.18336934,0.26981845,-0.17044558,-0.2230923,-0.14807582,-0.3397386,0.005214242,0.4674959,0.29052672,-0.2747261,-0.0076675965,-0.1513173,0.18639104,-0.040724393,0.15915509,0.09943242,0.320616,-0.59746975
TCGA-E9-A1N5-11A-41R-A14D-07,0.2586582,-0.34540156,-0.1359323,0.15940495,0.05069906,0.10780557,-0.2290073,0.104967736,-0.45138356,0.28409192,-0.29612747,0.14188784,-0.10835196,-0.10190815,0.27070576,-0.20865306,-0.1510797,-0.13111946,-0.09053961,-0.14215033,0.13674997,0.29074624,-0.022252617,-0.097096704,-0.1630091,-0.2569582,0.20357826,0.09002594,0.20375346,-0.20949139,0.15042491,-0.18616796,0.18932812,0.26244825,-0.16600482,-0.18701065,-0.13901788,-0.25832728,-0.030831851,0.44346866,0.22557305,-0.17506012,0.016500164,-0.16283655,0.24782728,-0.14183666,0.12287899,0.19535922,0.26449984,-0.54098785
TCGA-E9-A1N6-11A-32R-A144-07,0.2183246,-0.4477386,-0.032249816,0.10602906,-0.020949647,0.1823675,-0.2747284,0.08721717,-0.47388855,0.22108336,-0.25419432,0.12323674,-0.10158987,-0.0414286,0.41435528,-0.26033172,-0.21879232,-0.065258324,-0.2893524,-0.14466766,0.09950315,0.2691261,-0.1100215,-0.3047867,-0.21103662,-0.3318998,0.17496076,0.05615779,0.20482178,-0.17210816,0.13320448,-0.09767158,0.21007158,0.2600341,-0.11857412,-0.15417095,-0.09848421,-0.20077683,0.054509323,0.39500105,0.21322191,-0.25567228,0.05838581,-0.12746204,0.25192553,-0.18995063,0.14935306,0.24586391,0.19302294,-0.45468447
TCGA-E9-A1N9-11A-71R-A14D-07,0.16044597,-0.31774694,-0.0809616,0.1254863,-0.028425517,0.1284384,-0.28628737,0.010286059,-0.43457988,0.25100112,-0.29225636,0.19734077,-0.15763383,-0.04694411,0.3035296,-0.21687746,-0.19661307,-0.03921417,-0.24247742,-0.18630679,0.015890198,0.25971395,-0.05868721,-0.21525154,-0.22919539,-0.28904977,0.17674257,0.05389687,0.2046438,-0.1977831,0.18382457,-0.20303294,0.1775039,0.23543783,-0.17718188,-0.13116978,-0.074159265,-0.23999631,0.017999643,0.49697775,0.30037874,-0.3000195,0.10577249,-0.098860495,0.22021987,-0.13427244,0.1809774,0.23325263,0.22445485,-0.43703765
TCGA-E9-A1NA-11A-33R-A144-07,0.18996954,-0.40168932,0.11321007,0.12165614,-0.13560106,0.21744569,-0.2814806,0.04624956,-0.41734445,0.12386462,-0.15149228,0.16288367,-0.11276932,-0.030154679,0.405566,-0.30261457,-0.24070618,-0.05634549,-0.26019093,-0.13088584,0.0701249,0.25791734,-0.22012712,-0.37735355,-0.20728943,-0.3340137,0.19807933,0.10085427,0.19184421,-0.13507238,0.14945257,-0.120865874,0.21308963,0.26726753,-0.13598159,-0.13053949,-0.09599508,-0.21406302,0.0057700523,0.41750032,0.25224406,-0.26038694,0.16463643,-0.12216312,0.21687363,-0.17421974,0.18038437,0.30088744,0.1347158,-0.33608055
TCGA-E9-A1ND-11A-43R-A144-07,0.13932465,-0.4780299,0.1301847,0.0596297,-0.24746719,0.25136772,-0.21700685,0.24218935,-0.25860772,0.101539254,0.010646307,0.06881759,-0.031378325,0.087504625,0.30344543,-0.28792825,-0.35470968,-0.07444241,-0.5104892,-0.09806094,0.22135743,0.23757346,-0.119190894,-0.46237916,-0.11689411,-0.32840165,0.1688344,0.20912871,0.13644508,0.09364624,-0.0022713265,0.17193821,0.22816305,0.22339824,-0.08230256,-0.12253381,-0.22011118,-0.28124455,0.007810435,0.21659808,0.15692785,-0.25376764,0.15866096,-0.13933532,0.27777836,-0.31301522,0.18233348,0.43206477,0.07034783,-0.38409778
TCGA-E9-A1NF-11A-73R-A14D-07,0.19603631,-0.3554327,0.29398745,0.11795941,-0.34079245,0.38224795,-0.22349912,-0.08918817,0.007790663,-0.04128413,0.12769653,0.13050812,-0.1604686,0.15483202,0.5052698,-0.4383412,-0.34739122,-0.081661135,-0.17753038,-0.038314022,-0.13172719,0.2713921,-0.4926842,-0.6337648,-0.32299575,-0.23371513,0.30978495,0.1101146,0.27077833,-0.10893777,0.26152998,-0.24135557,0.2514868,0.27120918,-0.2784608,-0.20954256,0.028563181,-0.049326383,0.16506866,0.4230156,0.20734973,-0.33696294,0.35903335,-0.06075091,0.066629626,-0.24079168,0.122065544,0.20519546,-0.122897394,0.2092157
TCGA-E9-A1NG-11A-52R-A14M-07,0.18334074,-0.4599325,0.17640127,0.09817765,-0.24206102,0.27475512,-0.33184755,-0.003930426,-0.2820807,0.030014977,-0.108931,0.07804414,-0.16008927,0.06762752,0.4087368,-0.35853514,-0.2884902,-0.091466986,-0.24929857,-0.06663274,-0.0813263,0.27100536,-0.3585701,-0.56803155,-0.24620093,-0.28080252,0.27754188,0.050572746,0.2293871,-0.09125861,0.16523121,-0.21803302,0.19637065,0.29379374,-0.20787126,-0.17951319,-0.0738439,-0.14712419,0.16619581,0.49076545,0.22102575,-0.32068282,0.2535731,-0.13495065,0.12846175,-0.20071779,0.18251246,0.2918767,0.04236422,-0.116172165
TCGA-E9-A1R7-11A-42R-A14M-07,0.23651625,-0.45214948,0.15290524,0.18043739,-0.18834981,0.25893784,-0.3130352,-0.17454752,-0.26825738,0.017797891,-0.08001773,0.053189173,-0.17078666,0.08660737,0.5242692,-0.38313833,-0.24316086,-0.1042949,-0.17603892,-0.025959365,-0.10657067,0.32515338,-0.41080567,-0.6735489,-0.26867288,-0.18800236,0.25780115,0.047076985,0.2538689,-0.17921521,0.22163887,-0.3151665,0.19891869,0.2702704,-0.24459383,-0.17554186,-0.031020526,-0.1448975,0.15908359,0.6237886,0.20539023,-0.30164576,0.20913585,-0.122133754,0.050628856,-0.123053305,0.18544145,0.21683878,0.043443754,-0.15716583
TCGA-E9-A1RB-11A-33R-A157-07,0.22788507,-0.43136346,0.04457944,0.12260108,-0.108545415,0.24720272,-0.29563075,-0.16610141,-0.4148007,0.14408515,-0.1317468,0.09141254,-0.15662062,0.03919794,0.46329236,-0.31051806,-0.24662772,-0.09953999,-0.19085234,-0.060152315,0.008798645,0.29318562,-0.23677826,-0.51689035,-0.17302658,-0.22254717,0.19602315,0.011519716,0.2699023,-0.22633803,0.19999246,-0.20127131,0.18179935,0.2380348,-0.21200153,-0.13079779,-0.06526189,-0.19523607,0.14795184,0.5278138,0.18542944,-0.26921737,0.11768131,-0.07189136,0.22505188,-0.11112885,0.18777722,0.21317849,0.14987917,-0.3659988
TCGA-E9-A1RC-11A-33R-A157-07,0.20120512,-0.34667888,0.2664153,0.16298579,-0.3587646,0.32854638,-0.21277297,-0.15091659,0.028428948,-0.076164156,0.16630745,0.08743399,-0.1829126,0.17162588,0.4397681,-0.41840392,-0.3523428,-0.103109464,-0.2749664,-0.057165954,-0.13537683,0.3181441,-0.4655628,-0.6390463,-0.33071187,-0.2044278,0.2819771,0.16867611,0.26599473,-0.062559396,0.2607935,-0.3582065,0.28284842,0.33193782,-0.21635458,-0.18327583,0.06063145,-0.09056418,0.17458925,0.5020731,0.18895581,-0.35885385,0.35596836,-0.099957176,0.048400693,-0.104519255,0.17715403,0.24656849,-0.16036205,0.19733503
